#include<iostream>
#include <ap_fixed.h>
typedef ap_fixed<16,10> fixed_type;

extern fixed_type digits[400][28][28];
extern fixed_type labels[400];

void cnn(fixed_type input[28][28],
         fixed_type kernel[3][3][3],
         fixed_type bias[3],
         fixed_type W1[14][2352],
         fixed_type b1[14],
         fixed_type W2[12][14],
         fixed_type b2[12],
         fixed_type W3[10][12],
         fixed_type b3[10],
         fixed_type output_fc3[10]);

void print_output(fixed_type output_fc3[10]) {
    std::cout << "Output from Fully Connected Layer 3 (10 outputs):\n";
    for (int i = 0; i < 10; i++) {
        std::cout << "Output " << i << ": " << output_fc3[i] << "\n";
    }
} 
fixed_type maximum(fixed_type arr[10]){
	fixed_type maxval = arr[0];
	fixed_type maxindex = 0;

	for (int i=0;i<10;i++){
		if (arr[i] > maxval){
			maxval = arr[i];
			maxindex = i;
		}
	}
return maxindex;



};
int main(){

fixed_type input[28][28] = {
        {0, 0, 0, 0, 0, 0, 0, 0, 0, 0, 0, 0, 0, 0, 0, 0, 0, 0, 0, 0, 0, 0, 0, 0, 0, 0, 0, 0},
        {0, 0, 0, 0, 0, 0, 0, 0, 0, 0, 0, 0, 0, 0, 0, 0, 0, 0, 0, 0, 0, 0, 0, 0, 0, 0, 0, 0},
        {0, 0, 0, 0, 0, 0, 0, 0, 0, 0, 0, 0, 0, 0, 0, 0, 0, 62, 218, 11, 0, 0, 0, 0, 0, 0, 0, 0},
        {0, 0, 0, 0, 0, 0, 0, 0, 0, 0, 0, 0, 0, 0, 0, 0, 0, 2, 205, 90, 0, 0, 0, 0, 0, 0, 0, 0},
        {0, 0, 0, 0, 0, 0, 0, 0, 0, 0, 0, 0, 0, 0, 0, 0, 0, 0, 140, 184, 11, 0, 0, 0, 0, 0, 0, 0},
        {0, 0, 0, 0, 0, 0, 0, 0, 0, 0, 0, 0, 0, 0, 0, 0, 0, 0, 123, 254, 74, 0, 0, 0, 0, 0, 0, 0},
        {0, 0, 0, 0, 0, 0, 0, 0, 0, 0, 0, 0, 0, 0, 0, 0, 0, 0, 68, 254, 44, 0, 0, 0, 0, 0, 0, 0},
        {0, 0, 0, 0, 0, 0, 0, 0, 0, 0, 0, 0, 0, 0, 0, 0, 0, 0, 140, 248, 38, 0, 0, 0, 0, 0, 0, 0},
        {0, 0, 0, 0, 0, 0, 0, 0, 0, 0, 0, 0, 0, 0, 0, 0, 0, 0, 210, 210, 0, 0, 0, 0, 0, 0, 0, 0},
        {0, 0, 0, 0, 0, 0, 0, 0, 0, 4, 61, 106, 142, 190, 33, 0, 0, 0, 228, 210, 0, 0, 0, 0, 0, 0, 0, 0},
        {0, 0, 0, 0, 0, 0, 0, 0, 0, 111, 254, 254, 254, 253, 197, 176, 6, 45, 247, 210, 0, 0, 0, 0, 0, 0, 0, 0},
        {0, 0, 0, 0, 0, 0, 0, 0, 0, 219, 241, 97, 79, 76, 0, 0, 0, 92, 254, 210, 0, 0, 0, 0, 0, 0, 0, 0},
        {0, 0, 0, 0, 0, 0, 0, 0, 0, 220, 189, 0, 0, 0, 0, 0, 22, 213, 254, 96, 0, 0, 0, 0, 0, 0, 0, 0},
        {0, 0, 0, 0, 0, 0, 0, 0, 0, 165, 253, 106, 0, 0, 0, 0, 95, 254, 178, 2, 0, 0, 0, 0, 0, 0, 0, 0},
        {0, 0, 0, 0, 0, 0, 0, 0, 0, 55, 207, 246, 129, 0, 0, 126, 247, 217, 47, 0, 0, 0, 0, 0, 0, 0, 0, 0},
        {0, 0, 0, 0, 0, 0, 0, 0, 0, 0, 55, 207, 252, 131, 144, 246, 215, 56, 0, 0, 0, 0, 0, 0, 0, 0, 0, 0},
        {0, 0, 0, 0, 0, 0, 0, 0, 0, 0, 0, 36, 212, 254, 254, 156, 25, 0, 0, 0, 0, 0, 0, 0, 0, 0, 0, 0},
        {0, 0, 0, 0, 0, 0, 0, 0, 0, 7, 150, 230, 254, 241, 254, 214, 17, 0, 0, 0, 0, 0, 0, 0, 0, 0, 0, 0},
        {0, 0, 0, 0, 0, 0, 0, 0, 0, 114, 254, 233, 73, 34, 182, 254, 165, 0, 0, 0, 0, 0, 0, 0, 0, 0, 0, 0},
        {0, 0, 0, 0, 0, 0, 0, 0, 0, 131, 254, 178, 5, 13, 88, 255, 183, 0, 0, 0, 0, 0, 0, 0, 0, 0, 0, 0},
        {0, 0, 0, 0, 0, 0, 0, 0, 0, 97, 249, 254, 201, 232, 208, 254, 180, 0, 0, 0, 0, 0, 0, 0, 0, 0, 0, 0},
        {0, 0, 0, 0, 0, 0, 0, 0, 0, 0, 38, 118, 196, 199, 223, 227, 63, 0, 0, 0, 0, 0, 0, 0, 0, 0, 0, 0},
        {0, 0, 0, 0, 0, 0, 0, 0, 0, 0, 0, 0, 0, 0, 0, 0, 0, 0, 0, 0, 0, 0, 0, 0, 0, 0, 0, 0},
        {0, 0, 0, 0, 0, 0, 0, 0, 0, 0, 0, 0, 0, 0, 0, 0, 0, 0, 0, 0, 0, 0, 0, 0, 0, 0, 0, 0},
        {0, 0, 0, 0, 0, 0, 0, 0, 0, 0, 0, 0, 0, 0, 0, 0, 0, 0, 0, 0, 0, 0, 0, 0, 0, 0, 0, 0},
        {0, 0, 0, 0, 0, 0, 0, 0, 0, 0, 0, 0, 0, 0, 0, 0, 0, 0, 0, 0, 0, 0, 0, 0, 0, 0, 0, 0},
        {0, 0, 0, 0, 0, 0, 0, 0, 0, 0, 0, 0, 0, 0, 0, 0, 0, 0, 0, 0, 0, 0, 0, 0, 0, 0, 0, 0},
        {0, 0, 0, 0, 0, 0, 0, 0, 0, 0, 0, 0, 0, 0, 0, 0, 0, 0, 0, 0, 0, 0, 0, 0, 0, 0, 0, 0},
    };

fixed_type kernel[3][3][3] = {
        {
            {-0.0846, 0.1639, 0.0037},
            { 0.1250, -0.0289, 0.0038},
            {-0.2860, -0.0211, -0.1984}
        },
        {
            {-0.0597,-0.2008, -0.0153},
            {-0.4078, 0.2334, 0.1158},
            {0.1227, -0.1852,  0.1039}
        },
        {
            {0.0044, -0.3596, -0.1779},
            {-0.1264, 0.3656, -0.3573},
            {0.1006,  0.0527, -0.0028}
        }
    };

fixed_type bias_conv1[3] = {-0.0077, -0.2414, -0.0298};


fixed_type fc1_weight[14][2352] = {
    { -0.079349, -0.097328, -0.085071, -0.086496, -0.086402, -0.080721, -0.114016, -0.100230, -0.106207, -0.095268, -0.080205, -0.108439, -0.106334, -0.082316, -0.101488, -0.086068, -0.124662, -0.105862, -0.094439, -0.106461, -0.078466, -0.103348, -0.105835, -0.100544, -0.107533, -0.114527, -0.082926, -0.086337, -0.077528, -0.095064, -0.096239, -0.076764, -0.113660, -0.075767, -0.098345, -0.084829, -0.117883, -0.102429, -0.113937, -0.085942, -0.070936, -0.093126, -0.021032, -0.095082, -0.121703, -0.105591, -0.145220, -0.099954, -0.091221, -0.124576, -0.120138, -0.101906, -0.083086, -0.091594, -0.092183, -0.111348, -0.101376, -0.074914, -0.080240, -0.103201, -0.094436, -0.080374, -0.119480, -0.055714, -0.070160, 0.077653, -0.143342, -0.105228, 0.009227, 0.103431, 0.040799, -0.258397, -0.288352, -0.260123, -0.299646, -0.150733, -0.179927, -0.130197, -0.203781, -0.148611, -0.159745, 0.030856, -0.110308, -0.096394, -0.105603, -0.076537, -0.094576, -0.097273, -0.063426, -0.075547, -0.047397, 0.151640, 0.084417, 0.129775, 0.252620, 0.108047, -0.214042, -0.094941, -0.111513, 0.015831, -0.129811, -0.201541, -0.246612, -0.578346, -0.106611, 0.242627, -0.247792, -0.078156, -0.190773, -0.038184, -0.153068, -0.201425, -0.091966, -0.092612, 0.084649, 0.064102, 0.014477, -0.133685, -0.036893, 0.157614, 0.149490, 0.076235, 0.186483, 0.248144, 0.350954, -0.142318, -0.123223, -0.113036, -0.258104, -0.325931, 0.007261, 0.094998, 0.094958, -0.033784, 0.070660, -0.035888, 0.338610, 0.223548, -0.358315, 0.218439, -0.092475, 0.031241, 0.057734, -0.084969, -0.157797, -0.163193, 0.023290, 0.039345, 0.328564, 0.176567, 0.160420, 0.188225, 0.165685, 0.150495, 0.091407, -0.143486, -0.195704, -0.015098, -0.130076, -0.094362, -0.053555, -0.157843, -0.116329, -0.013106, -0.360328, -0.010131, 0.173231, -0.073237, -0.081308, 0.082606, -0.005606, 0.005018, -0.053390, 0.095121, 0.372115, 0.246789, 0.423678, 0.149003, 0.293643, 0.239955, 0.074171, 0.071147, 0.010915, 0.151289, -0.171339, -0.336296, -0.050302, 0.020654, -0.195807, -0.222247, -0.155944, -0.230525, 0.181113, 0.193663, 0.127237, 0.348672, -0.040147, -0.048218, 0.159484, 0.035475, -0.068084, 0.111348, 0.057292, 0.291347, 0.350219, 0.213660, 0.160572, 0.017601, 0.125251, 0.028230, -0.062906, -0.014616, -0.101176, -0.150423, -0.038936, -0.006196, -0.284453, -0.302698, -0.071150, 0.047725, -0.099190, -0.139576, -0.041719, -0.007307, 0.048070, 0.034873, -0.064842, 0.013490, -0.037131, 0.263084, 0.426032, 0.319287, 0.263090, 0.254130, 0.272426, -0.007530, 0.050972, 0.064000, 0.132476, 0.049136, -0.092589, 0.053224, -0.065129, -0.200317, -0.205419, -0.204506, -0.157482, -0.231191, -0.082919, -0.045765, 0.013713, -0.079017, 0.146244, -0.022863, -0.014240, 0.251667, 0.156393, 0.236751, 0.425216, 0.086249, 0.233154, 0.140699, 0.250431, 0.141951, 0.162315, 0.184728, 0.221952, -0.021029, 0.009234, -0.084753, 0.049266, -0.021361, -0.115573, -0.092929, 0.045392, -0.232946, -0.099456, 0.065724, 0.094572, 0.195141, -0.112106, 0.054121, 0.110783, 0.268633, 0.315394, 0.160589, -0.004077, 0.144861, 0.276035, -0.038836, 0.037029, 0.108743, -0.081179, 0.005004, -0.132253, 0.048755, 0.010023, 0.093512, 0.021023, -0.066906, 0.153612, 0.006986, -0.058416, -0.151148, 0.073038, 0.008491, -0.009215, -0.173616, -0.143504, 0.058270, 0.155634, 0.152572, 0.141287, 0.205369, 0.218877, 0.543858, 0.342586, 0.064752, -0.027969, -0.140642, 0.176872, 0.024468, 0.133535, -0.190669, 0.077429, 0.299276, -0.111726, 0.064483, 0.024745, 0.030279, 0.027129, -0.007142, -0.226518, -0.082734, 0.062639, 0.304244, -0.156958, -0.248831, -0.172285, 0.058859, 0.069026, 0.138512, 0.252789, 0.104651, 0.015493, 0.076195, -0.182934, 0.132429, -0.125459, -0.243722, -0.101720, -0.032994, -0.027380, 0.248028, 0.309145, 0.206178, 0.144228, 0.212281, 0.252695, 0.092874, -0.130093, 0.017206, -0.057281, -0.271461, -0.111798, -0.004909, -0.104265, -0.147135, 0.305282, 0.260883, 0.393192, -0.208072, -0.150837, -0.247098, 0.080882, -0.046175, -0.109634, -0.167339, -0.012529, -0.141934, 0.170878, 0.350873, 0.146594, 0.393722, 0.107411, 0.295685, 0.113467, 0.248705, 0.039338, -0.007595, 0.115613, 0.013803, -0.126827, -0.053679, 0.283636, 0.206218, 0.086862, -0.018296, -0.061491, -0.032006, -0.003522, 0.002331, -0.042377, -0.065584, -0.018717, 0.054211, 0.076055, 0.109605, 0.219375, 0.163855, 0.206825, 0.197699, 0.257341, 0.014074, 0.196385, 0.102094, -0.023814, 0.243299, 0.072235, 0.153414, -0.161765, -0.095173, -0.016177, 0.022629, -0.132098, -0.355314, -0.315716, -0.085539, 0.002466, 0.020833, 0.067770, -0.123904, -0.147603, -0.135870, 0.079832, 0.139555, 0.195866, 0.128750, 0.341260, 0.174663, -0.026180, 0.014316, -0.063515, 0.064311, -0.097096, -0.056199, -0.028666, -0.072689, -0.108723, -0.139753, -0.075499, -0.179064, -0.135785, -0.126339, -0.016622, 0.025287, 0.128058, -0.008777, -0.071594, -0.082385, -0.029300, 0.098043, 0.136124, 0.202469, 0.141538, 0.147543, -0.127593, 0.081742, -0.116208, -0.196567, -0.162678, 0.090606, -0.168013, -0.194807, -0.036435, -0.007718, 0.002276, 0.083461, -0.231330, -0.153500, -0.221061, -0.318690, 0.122828, 0.192541, 0.081576, 0.054981, 0.094358, -0.149817, -0.067532, 0.061396, -0.043291, 0.181249, -0.050806, 0.056155, 0.121624, -0.248846, -0.151207, -0.083650, -0.112436, 0.018572, -0.078730, -0.052758, 0.015738, 0.116404, -0.087539, 0.067529, -0.049069, 0.073599, -0.222708, -0.063956, -0.078148, 0.030163, 0.150109, 0.194477, -0.097119, 0.048345, 0.128379, -0.065622, -0.014404, 0.138771, 0.061716, -0.124622, -0.212608, -0.306126, -0.230938, -0.091981, -0.250655, -0.256904, -0.005349, 0.007431, -0.039798, -0.104167, -0.181924, 0.160853, 0.128486, -0.036659, -0.059990, -0.182287, -0.065310, -0.203981, 0.068731, -0.065713, -0.114031, 0.064832, 0.190254, 0.019417, 0.127066, -0.027788, -0.176205, -0.045823, -0.067371, -0.158716, -0.148711, -0.158608, -0.256407, 0.027745, 0.122408, 0.040712, -0.061816, 0.174866, -0.096351, -0.090187, 0.033216, 0.172187, 0.050720, 0.179396, 0.055680, 0.014513, 0.034997, 0.024195, -0.046561, 0.044215, -0.266957, 0.115725, 0.027682, 0.161472, 0.219047, 0.275687, 0.050725, 0.004973, -0.082247, -0.134317, 0.177844, 0.041307, 0.057279, 0.182827, -0.015963, 0.108806, -0.070067, 0.025892, -0.014556, 0.030071, 0.009056, 0.022197, -0.124784, -0.074386, -0.083442, -0.118959, 0.004410, 0.084258, 0.121495, 0.068352, 0.265901, 0.239076, 0.173916, 0.144828, -0.028146, -0.079341, 0.302467, 0.166178, -0.052166, 0.155896, -0.149441, 0.007573, 0.103044, -0.064509, -0.027304, 0.120685, 0.118061, 0.153978, 0.200089, 0.011689, 0.058160, 0.092691, -0.002325, -0.028597, 0.105629, 0.052641, 0.142103, 0.204771, 0.093183, 0.223447, 0.132274, -0.076566, -0.024847, 0.134390, -0.041458, -0.107439, 0.067742, -0.073521, -0.117940, 0.068746, -0.043832, -0.067151, -0.164408, 0.000528, -0.045195, -0.035417, -0.009249, 0.084679, 0.267967, 0.076990, 0.101067, 0.054962, 0.020356, 0.012483, 0.057921, 0.088854, 0.196104, 0.127666, 0.082158, 0.072778, 0.101939, 0.112855, -0.110893, 0.060950, -0.042535, 0.094940, 0.099113, 0.150064, 0.117741, -0.039795, -0.079480, 0.049603, -0.015888, -0.085487, -0.052812, 0.033438, -0.098038, 0.163152, 0.012491, 0.062667, 0.069158, 0.112593, 0.101945, 0.093313, 0.054406, 0.055489, 0.016534, 0.056315, -0.055768, -0.059246, 0.170719, 0.009385, 0.222000, 0.272336, -0.031056, 0.191860, -0.102334, -0.058834, -0.096086, 0.039289, 0.073524, 0.142884, -0.064887, -0.167862, 0.102662, -0.094252, 0.018744, -0.026502, -0.012323, 0.112465, 0.104044, 0.231792, 0.163214, 0.035341, 0.086568, 0.068576, 0.065386, 0.135208, -0.023128, 0.033139, -0.158997, 0.068114, -0.069778, -0.237424, -0.078818, -0.040992, -0.104025, -0.145956, -0.207055, -0.186414, -0.215015, -0.157558, -0.018442, -0.086284, 0.161435, 0.027251, 0.051078, -0.001940, 0.065917, 0.053722, -0.000870, 0.123476, 0.074004, 0.056175, 0.052897, 0.135460, -0.117710, -0.082185, -0.125856, -0.323404, -0.158674, -0.092865, 0.002754, -0.101464, -0.097211, -0.080502, -0.210980, -0.315881, -0.313811, -0.272552, -0.114241, 0.184753, 0.115221, -0.082851, -0.018322, -0.009050, -0.134816, 0.068494, 0.092631, -0.119362, 0.043574, 0.054231, -0.023354, -0.187719, -0.104553, -0.191468, -0.164759, -0.153692, -0.096677, 0.008214, -0.102392, -0.101638, -0.007518, 0.004518, -0.009200, 0.011281, -0.007854, -0.011831, -0.105584, -0.057828, -0.066559, -0.055939, 0.018350, -0.045173, -0.176647, 0.206268, 0.187492, 0.187661, 0.109364, 0.005037, -0.009615, -0.023254, -0.009268, 0.000375, 0.004610, 0.014584, -0.012260, 0.006581, 0.009051, -0.007205, 0.007656, -0.005376, -0.003673, -0.080747, -0.130429, -0.040118, 0.093587, 0.079676, 0.004946, -0.037209, -0.042183, 0.134816, 0.045377, 0.240809, 0.065115, -0.062736, 0.019489, -0.051341, -0.104262, -0.219345, -0.107573, -0.155726, 0.054199, 0.003097, 0.004553, -0.014172, -0.001313, 0.010945, 0.014300, 0.112640, 0.026607, -0.009457, -0.016257, -0.082161, 0.023004, 0.053940, -0.157978, 0.305085, -0.088208, 0.087858, -0.051610, 0.081052, 0.075582, -0.238751, 0.077427, -0.215291, -0.043249, -0.062973, -0.071971, 0.061717, -0.205088, 0.019464, -0.057323, -0.016360, 0.014560, -0.009311, 0.014042, 0.165558, -0.071300, 0.051059, -0.057292, -0.024137, -0.168977, 0.233252, -0.112895, -0.067674, 0.113135, 0.165796, 0.188639, 0.065256, 0.024927, -0.065696, -0.002597, -0.046329, -0.063566, 0.184705, 0.086130, -0.071771, -0.145692, -0.280752, -0.115649, 0.112683, 0.019820, 0.010074, -0.014957, 0.095235, 0.033710, 0.360080, -0.251723, 0.140091, -0.014725, -0.067170, -0.020491, -0.009617, 0.080138, 0.030869, 0.068698, -0.097006, 0.069654, 0.148845, -0.073607, 0.013276, -0.176154, 0.049944, -0.025407, -0.367233, -0.216012, -0.019824, 0.284330, 0.140373, 0.055748, 0.007064, 0.055272, -0.016677, 0.088302, 0.212292, -0.152074, -0.052587, -0.027867, -0.069834, -0.227909, -0.010373, -0.119936, -0.090100, -0.037517, 0.014590, -0.074884, -0.102995, 0.097716, -0.139726, -0.037848, 0.032468, -0.048850, 0.145955, 0.135322, -0.054920, 0.512475, 0.026058, 0.315066, 0.001586, 0.065695, -0.091846, 0.114266, 0.149594, -0.109484, -0.097425, -0.082791, -0.022373, -0.036055, 0.041941, -0.090724, -0.082789, 0.054918, -0.130898, 0.081744, -0.094358, -0.354534, -0.079237, 0.043795, 0.029607, -0.020375, -0.125724, -0.210608, 0.077579, 0.412987, 0.104056, 0.365597, -0.017160, 0.086541, -0.103407, 0.167034, 0.065472, -0.183346, -0.033550, -0.079152, -0.080021, -0.141851, 0.072951, -0.119144, -0.060639, -0.056345, 0.016822, -0.021723, -0.113966, -0.255699, 0.013548, 0.097410, -0.029620, 0.067038, 0.009277, -0.127415, -0.199624, 0.410413, 0.070899, 0.179007, 0.172102, 0.162558, 0.091234, 0.152453, 0.025110, -0.033849, -0.043271, 0.045610, -0.007855, -0.116559, -0.135675, -0.043636, -0.081683, -0.277976, -0.073275, -0.041983, 0.050906, 0.076444, 0.025718, 0.034468, -0.061097, -0.122540, 0.124083, 0.147481, 0.364509, -0.003184, 0.122299, 0.093861, 0.005012, -0.116049, 0.016188, 0.029974, -0.074815, -0.183919, -0.038471, -0.103782, -0.116740, 0.058766, -0.135572, -0.114162, -0.141944, -0.069955, -0.025757, -0.123205, 0.155519, 0.105009, -0.045088, -0.038148, -0.012561, 0.168912, 0.312470, 0.278956, 0.262141, 0.104423, -0.049721, 0.056149, -0.012079, -0.172353, -0.146580, -0.064877, -0.138554, -0.094884, -0.135932, -0.113785, -0.076107, -0.120342, -0.053435, 0.058748, -0.155695, -0.029365, 0.033497, -0.043834, -0.015909, 0.228158, 0.031832, 0.121531, 0.286318, 0.046177, 0.292144, 0.088915, -0.007793, -0.000462, -0.047034, 0.084261, -0.010798, -0.179061, -0.181374, 0.002422, 0.036003, -0.077196, -0.074215, 0.003744, -0.077982, -0.123024, -0.028055, -0.127522, -0.014268, 0.151153, -0.034523, -0.005470, 0.131618, 0.070312, 0.049681, 0.093298, -0.014722, 0.210037, 0.370665, 0.180092, -0.065035, -0.000723, 0.257078, 0.037628, 0.035990, -0.056878, -0.038881, 0.057056, -0.147418, 0.015636, -0.064758, -0.151611, -0.096825, -0.082441, -0.163433, -0.006226, -0.017345, 0.160067, 0.252164, 0.071134, -0.008240, 0.067017, 0.167474, 0.121591, 0.131412, 0.021871, 0.317513, -0.055113, -0.117128, -0.038052, 0.025061, 0.161899, 0.186086, -0.060756, 0.035782, 0.053282, -0.212119, -0.115436, -0.225521, -0.273486, -0.117467, -0.017662, -0.044695, 0.065415, 0.152261, 0.157574, 0.033883, -0.075319, 0.003828, 0.037264, -0.051555, -0.043548, -0.167578, -0.074338, 0.057812, -0.070433, -0.196034, 0.091202, -0.051149, 0.069526, 0.020618, -0.029839, -0.019930, -0.140162, -0.246343, -0.139354, -0.292481, -0.216669, -0.137037, -0.046140, -0.074018, 0.144287, 0.074455, 0.245154, -0.038284, -0.270074, -0.401821, -0.108230, -0.293876, -0.334808, -0.426834, -0.093067, 0.011971, -0.060115, 0.105579, -0.203116, -0.117955, -0.102156, -0.008532, 0.044873, 0.072165, -0.190671, -0.156466, -0.080172, 0.016608, -0.133154, -0.115215, 0.017087, -0.035025, -0.029912, 0.152059, 0.024984, 0.013182, -0.153282, -0.380477, -0.109413, -0.247490, -0.186297, -0.005010, -0.151088, -0.279135, 0.081244, -0.024990, 0.066996, 0.128615, 0.160589, 0.017464, 0.132406, 0.065276, -0.057914, 0.112981, -0.127142, 0.008993, 0.058634, 0.087744, 0.026517, 0.095573, 0.222621, 0.363363, 0.050393, -0.067138, -0.268317, -0.155741, -0.096684, -0.093304, -0.188967, -0.081988, 0.123044, 0.141835, 0.005499, 0.052310, 0.073557, 0.119755, -0.032183, -0.017258, 0.074887, 0.092799, 0.112449, 0.015870, 0.160670, -0.011782, 0.061877, 0.126940, 0.119073, 0.183661, 0.127855, 0.156767, 0.031346, -0.005373, -0.025491, -0.044997, -0.080306, -0.052569, 0.039535, -0.092448, -0.194511, 0.068835, 0.003756, 0.004938, -0.034496, 0.164761, -0.118711, -0.018278, 0.111775, 0.069345, 0.164921, -0.084218, 0.078984, 0.150842, 0.297246, 0.254196, 0.107560, 0.096022, 0.099932, 0.233254, 0.177215, -0.014346, -0.060209, 0.123092, 0.081190, 0.030811, 0.118867, 0.114643, -0.057887, 0.009523, -0.063376, -0.065769, 0.082567, 0.222773, -0.023901, -0.135847, 0.108339, 0.021287, 0.133433, 0.037552, 0.092467, 0.154813, 0.187766, 0.241628, 0.218460, 0.153681, 0.037436, 0.206415, 0.115678, 0.185755, 0.171306, 0.199472, 0.092333, 0.068175, -0.092825, -0.034302, 0.018776, 0.185471, 0.110340, 0.016020, -0.124281, 0.101677, -0.161401, -0.006991, 0.056982, 0.048861, 0.126582, 0.037097, 0.130482, 0.284190, 0.270549, 0.128736, 0.191560, 0.294939, 0.049190, 0.181501, 0.276072, 0.093123, 0.073534, 0.019196, 0.106274, 0.197298, -0.209373, 0.151432, 0.018033, 0.146561, -0.201626, 0.167010, 0.048431, 0.018235, -0.108437, -0.028955, 0.031394, 0.173345, 0.089616, 0.086535, 0.213374, 0.086579, 0.190461, -0.119894, 0.009660, 0.030313, 0.174226, -0.000902, 0.397082, 0.191848, 0.052037, 0.094189, 0.195759, 0.098488, 0.018272, -0.022558, -0.123944, -0.039435, 0.033300, 0.075727, 0.112994, -0.055520, -0.061484, -0.014968, 0.011277, 0.111435, 0.053333, -0.036737, 0.216414, 0.191360, 0.061680, -0.041679, 0.062703, -0.033002, 0.052771, 0.072563, -0.011578, 0.117730, 0.129886, -0.099369, -0.049627, 0.005019, 0.011055, -0.160309, 0.022283, 0.006897, -0.172269, 0.083418, -0.124654, 0.026228, -0.066626, -0.046677, 0.005408, 0.042940, -0.047254, -0.118283, 0.023332, 0.081660, -0.168946, 0.095751, 0.077466, 0.048761, 0.131654, -0.036174, 0.034070, 0.194585, -0.051436, -0.082069, 0.046884, -0.025574, -0.343982, -0.096750, 0.117428, 0.118983, -0.201972, 0.003322, 0.231026, 0.088906, 0.097292, 0.001507, -0.000877, 0.139102, 0.118612, -0.099061, -0.254466, 0.119165, -0.051042, 0.039696, 0.001268, -0.099322, -0.092710, -0.005464, -0.013940, -0.254284, -0.019557, 0.024899, 0.220911, -0.043579, 0.071316, -0.236118, 0.027453, -0.128329, -0.018876, -0.048490, -0.221580, -0.187688, 0.011048, -0.015944, 0.005018, -0.061129, -0.085771, -0.242401, -0.246197, 0.092301, -0.169425, 0.002685, -0.202381, -0.087474, -0.005439, -0.000012, 0.212407, -0.122402, 0.196453, -0.108252, -0.171613, -0.245982, 0.166284, -0.191522, -0.273786, -0.148252, -0.155807, -0.161495, -0.233207, 0.006635, 0.018538, -0.009119, -0.019451, -0.036133, -0.138405, -0.266379, -0.307132, -0.256760, 0.014047, 0.172450, -0.189082, -0.056994, 0.158495, -0.376557, -0.156522, 0.026259, -0.140126, -0.074823, 0.158708, -0.054122, 0.066323, 0.002323, -0.183284, -0.153255, 0.090839, 0.154796, 0.027328, 0.102256, 0.015782, 0.005046, 0.012121, -0.019776, -0.033414, -0.010256, 0.107622, 0.202315, 0.157760, 0.077755, -0.061877, -0.167939, -0.214738, 0.040888, 0.293024, 0.174787, 0.103245, 0.082545, -0.050981, -0.276724, -0.165866, -0.179736, -0.132020, 0.021306, -0.014751, 0.011079, 0.010542, 0.013801, -0.008467, 0.009477, 0.021397, 0.031228, 0.024143, 0.038987, 0.036805, 0.036181, 0.036577, 0.057852, 0.050806, 0.022276, -0.005900, -0.021043, -0.051828, -0.136266, 0.121292, 0.230766, 0.351713, 0.246728, 0.160650, 0.015362, 0.004494, 0.042457, 0.006004, 0.047265, 0.040068, 0.053316, 0.040562, 0.041284, 0.024331, 0.034339, 0.018469, 0.042386, 0.036962, 0.065329, -0.010651, 0.106181, 0.121637, 0.090394, -0.005370, -0.020992, 0.052696, 0.210046, 0.097663, 0.281065, -0.029164, -0.123987, -0.242613, -0.180814, -0.114739, -0.119809, -0.183297, -0.057386, 0.021609, 0.063833, 0.011852, 0.055306, 0.034245, 0.033546, 0.130522, 0.149616, 0.061639, -0.006471, -0.024166, -0.009968, -0.027011, -0.104033, -0.055499, 0.066235, 0.087622, 0.082817, -0.117604, -0.035078, -0.017289, -0.033100, 0.085111, 0.076503, 0.003392, 0.015633, 0.101698, 0.139289, 0.009507, -0.145984, -0.140571, -0.155714, 0.038802, 0.038719, 0.134355, 0.143062, 0.009777, -0.052929, -0.008965, 0.087182, -0.000066, -0.059142, -0.084953, 0.246976, 0.020114, 0.021637, 0.024287, 0.065444, 0.110265, 0.065046, 0.126536, 0.099048, 0.003041, 0.093780, 0.107821, 0.068756, -0.081112, -0.033047, -0.089311, -0.179643, 0.053881, 0.011559, 0.133122, 0.154002, 0.273796, 0.108422, -0.015258, 0.200966, -0.066647, -0.035651, -0.068343, 0.021132, 0.145539, 0.068226, 0.126447, 0.170237, 0.080269, 0.059227, 0.069197, 0.094060, 0.242586, 0.274648, 0.260239, 0.182744, 0.089642, 0.103583, 0.053340, -0.148352, 0.023912, 0.039379, 0.055615, -0.004719, 0.033375, -0.160342, -0.000631, 0.070903, 0.018855, -0.034580, -0.099616, -0.012835, -0.041861, 0.198348, 0.154743, 0.103499, 0.180143, 0.160948, 0.211449, 0.201940, 0.092632, 0.129395, 0.269295, 0.140067, 0.070990, -0.043367, 0.048487, 0.058008, 0.039610, 0.075950, 0.008306, 0.074695, -0.133601, -0.010443, 0.069306, 0.147400, -0.094912, -0.233535, -0.002351, -0.067965, 0.029617, 0.151916, 0.047385, 0.020156, 0.166453, 0.145814, 0.166216, 0.074963, 0.112149, 0.147987, 0.027582, 0.055903, -0.028253, -0.100400, -0.022460, -0.136523, 0.162380, 0.141388, 0.012715, -0.188966, -0.088365, -0.019133, 0.008833, 0.031152, -0.061302, -0.165837, -0.115599, -0.127985, -0.049963, 0.144782, 0.217590, 0.029150, 0.092783, -0.058547, -0.063697, 0.141480, 0.058487, -0.034314, 0.056399, 0.121715, 0.009408, -0.123082, -0.061140, -0.041523, 0.132539, 0.038894, 0.051931, -0.187240, 0.036133, -0.004639, -0.149848, 0.061850, 0.150095, -0.231594, 0.132220, -0.012397, -0.135008, 0.080426, 0.095901, 0.095596, 0.107426, -0.180617, -0.034908, 0.108645, 0.076160, -0.172951, 0.160000, 0.109794, 0.086899, -0.049367, 0.025091, -0.061707, 0.078124, -0.083059, 0.009590, 0.021533, 0.179687, -0.106170, -0.268447, 0.093833, -0.220460, -0.349566, 0.092932, 0.038677, 0.021094, -0.045395, 0.093607, 0.185850, 0.152306, -0.175557, 0.058214, 0.015537, 0.036451, 0.182318, -0.189616, -0.106044, 0.118330, -0.126137, 0.056469, -0.164383, -0.015478, -0.143090, -0.164971, -0.199049, -0.188031, -0.141666, -0.299470, 0.268555, -0.139693, -0.175838, -0.180026, -0.073806, -0.040703, 0.242393, 0.024373, 0.088115, -0.093942, -0.131559, 0.016033, -0.195898, -0.099369, -0.000950, -0.117348, 0.037817, 0.047677, 0.070682, 0.271890, 0.071891, 0.031282, -0.116126, 0.045027, 0.152282, 0.007113, 0.073611, 0.113886, -0.186400, -0.097308, 0.018188, -0.253085, 0.237986, 0.008065, 0.060097, -0.095302, -0.105080, -0.183486, -0.272768, -0.234251, -0.177492, -0.158731, -0.146432, -0.061904, -0.180898, 0.014122, 0.013491, -0.148450, -0.157820, 0.042524, 0.105532, 0.244346, -0.037632, 0.150888, 0.191450, 0.044181, 0.155845, 0.175200, -0.017390, 0.045721, -0.030675, 0.108814, -0.146335, -0.282890, -0.114511, -0.209954, -0.147313, -0.111382, -0.159801, -0.232351, -0.013132, 0.031840, -0.128826, 0.058607, -0.261741, 0.041295, 0.069558, -0.037574, -0.009675, 0.052990, -0.143910, -0.040823, 0.449867, 0.140735, 0.240339, -0.045961, 0.014413, -0.095415, 0.134767, 0.009491, -0.059242, -0.102819, -0.362312, -0.107832, -0.100314, -0.072864, -0.158066, -0.134706, 0.070417, -0.125006, -0.017480, -0.144746, 0.149803, 0.213974, 0.238810, 0.006744, 0.074460, 0.141494, 0.276596, 0.176527, 0.155937, 0.061764, 0.161376, 0.269062, -0.160615, 0.129340, 0.161844, 0.089983, -0.129987, -0.247749, -0.129452, -0.094712, -0.034142, -0.098651, 0.006175, -0.131789, -0.029486, -0.004796, 0.024681, 0.173364, 0.026954, 0.122586, -0.017989, 0.076254, 0.159958, 0.289535, 0.357357, 0.101228, 0.192793, -0.099796, -0.066949, -0.124761, -0.109850, -0.127672, -0.100197, -0.169332, -0.341463, -0.391940, -0.247394, 0.049794, 0.159162, -0.013674, 0.078228, -0.034240, 0.023951, 0.110692, 0.066797, 0.226284, 0.183257, -0.027252, 0.198541, 0.062703, 0.161899, 0.307713, 0.217801, 0.125645, 0.407450, 0.185444, 0.223179, -0.028947, -0.232443, -0.263780, -0.124929, 0.156006, -0.243534, -0.123588, -0.166037, -0.009384, 0.135167, 0.022905, 0.053770, 0.003239, 0.104401, 0.005184, -0.027455, 0.179241, -0.057663, 0.034645, -0.012865, 0.012037, 0.025740, 0.309368, -0.002488, 0.226762, 0.154318, -0.018970, 0.076871, -0.059899, -0.032509, -0.237522, -0.076008, 0.007617, -0.229570, 0.076089, -0.227154, 0.001646, 0.206618, 0.260441, 0.194812, 0.100089, 0.165823, 0.345384, 0.048265, -0.075889, -0.036905, -0.096169, 0.075496, 0.017293, -0.007987, -0.125944, 0.105710, -0.065886, 0.296196, 0.002217, -0.184134, -0.247714, -0.096599, -0.061818, -0.061913, 0.071592, -0.081313, 0.003235, 0.136419, 0.202374, 0.275119, 0.145658, 0.090991, 0.130846, -0.250959, 0.028141, -0.067202, 0.143598, -0.104483, -0.067999, 0.271709, 0.024570, 0.102103, -0.051655, -0.004009, 0.268322, 0.055968, 0.022636, -0.106387, -0.390059, -0.014579, -0.030278, -0.143948, 0.022217, 0.021730, -0.028382, 0.103913, 0.051179, 0.180863, 0.057588, -0.087081, -0.124811, 0.198633, 0.022160, 0.242546, 0.039314, -0.029260, 0.115445, 0.000030, 0.036561, 0.092303, 0.128994, 0.051341, 0.156703, -0.193168, -0.248021, -0.028746, -0.258083, -0.117961, 0.002642, -0.014387, 0.057108, -0.189251, 0.033561, 0.168498, 0.061352, 0.212391, 0.088095, 0.166924, 0.196303, 0.372587, -0.056248, 0.064470, 0.029817, 0.036516, 0.182656, 0.127474, 0.005432, 0.063337, -0.006111, -0.037318, 0.077731, -0.127457, -0.177318, -0.139712, 0.128907, -0.033824, -0.062214, 0.095063, -0.091380, -0.116422, -0.000689, -0.172863, -0.146048, -0.029798, 0.111906, 0.121599, -0.121740, 0.044525, -0.096096, -0.092254, -0.065385, 0.107770, 0.057297, 0.221023, 0.019073, 0.026638, 0.026840, -0.242729, 0.056654, 0.034907, -0.077033, 0.117669, 0.036888, -0.096454, -0.001566, -0.055842, 0.047757, -0.032122, 0.286027, -0.147696, -0.056027, 0.116866, 0.011945, 0.232146, 0.015448, -0.112502, -0.071292, 0.178058, -0.091388, 0.151628, 0.230079, 0.091268, 0.033378, 0.037596, 0.105762, -0.004191, 0.215654, 0.380994, 0.210747, 0.347148, 0.292812, 0.367627, 0.157998, 0.080500, 0.014885, 0.062674, -0.055341, 0.042413, 0.209996, 0.124876, -0.044112, 0.020298, -0.027693, -0.137424, 0.025800, -0.200700, 0.019209, -0.135287, -0.057096, 0.045172, 0.022053, 0.027352, 0.009979, -0.002410, 0.244599, 0.138644, 0.022659, 0.223668, 0.423871, 0.269843, 0.378071, 0.355516, -0.130254, 0.153674, -0.099467, 0.035179, -0.057967, 0.008200, 0.017512, 0.325765, -0.176757, -0.106379, -0.042361, -0.229330, -0.002276, -0.194966, 0.014891, 0.068175, 0.018132, 0.046680, -0.010844, 0.022474, -0.014204, -0.334217, 0.247043, -0.124378, 0.308163, -0.003965, 0.003076, -0.408018, 0.098129, 0.017934, -0.042566, -0.303601, -0.143673, 0.083912, 0.064648, -0.024101, -0.164188, -0.073915, -0.271715, -0.164379, 0.028299, 0.093957, 0.050660, 0.044466, 0.048853, 0.049476, 0.021899, 0.021118, 0.024150, 0.043160, -0.045929, 0.065594, -0.054576, -0.074018, -0.155633, -0.200908, -0.022727, -0.234390, -0.047383, -0.030879, -0.024746, -0.068914, -0.247254, -0.210917, -0.409158, -0.232126, -0.093688, -0.029627, 0.023474, 0.019501, 0.042746, 0.016229, 0.031399, 0.035698, 0.021632, 0.037486, 0.026487, 0.031465, 0.037164, 0.005826, -0.046307, 0.062715, -0.037877, 0.171584, -0.316022, 0.100384, -0.100851, 0.011987, -0.046522, -0.040490, 0.017145, -0.068762, 0.088606, 0.049597, -0.081164, 0.042222, 0.026338, 0.017540, 0.019137, 0.041898 },
    { -0.030814, -0.017857, -0.018976, -0.009820, -0.019278, -0.038219, -0.032518, -0.032414, -0.032670, -0.034507, -0.023598, -0.008586, -0.028355, -0.008307, -0.009328, -0.029276, -0.039320, -0.033472, -0.028312, -0.033500, -0.044188, -0.044636, -0.010537, -0.015136, -0.009795, -0.035233, -0.022970, -0.037548, -0.009138, -0.031075, -0.035387, -0.035182, -0.010042, -0.036461, -0.031978, -0.013524, -0.094138, -0.019412, -0.028138, -0.031448, 0.024755, -0.043113, 0.010988, -0.022820, -0.012387, -0.038097, 0.070986, -0.098257, -0.026421, -0.012703, -0.004667, -0.026590, -0.013025, -0.009198, -0.034922, -0.047956, -0.028207, -0.015808, -0.034695, -0.007242, -0.018810, -0.003930, -0.007849, -0.029269, -0.019052, -0.097846, -0.087200, -0.116858, -0.125009, -0.051973, 0.136623, 0.219634, 0.131366, 0.138471, -0.037823, -0.111675, 0.068581, 0.345897, 0.210305, 0.243660, 0.251721, 0.009453, -0.011712, -0.024594, -0.021706, -0.090236, 0.113359, 0.219172, 0.084676, 0.217830, -0.013878, -0.103347, -0.206077, 0.077414, 0.126778, -0.089025, -0.127511, 0.204717, -0.001920, -0.060863, 0.107191, -0.064969, -0.011050, 0.080663, 0.218519, 0.010538, -0.027856, 0.113384, -0.129913, -0.074143, -0.072382, 0.090459, -0.007790, -0.105993, 0.114476, 0.059864, -0.046696, 0.065244, 0.047599, -0.151911, 0.119590, -0.071253, 0.057514, -0.119637, 0.214555, 0.431877, 0.289909, 0.230106, 0.046113, 0.039803, -0.187010, 0.047826, 0.096205, 0.041867, -0.050962, 0.063911, 0.240058, 0.182172, -0.149499, 0.204706, -0.034141, -0.105322, -0.053036, 0.173263, 0.213455, 0.136258, 0.127354, 0.109222, 0.028877, 0.209380, 0.228708, 0.254542, 0.112068, 0.131563, 0.365415, 0.229112, 0.222717, 0.194515, 0.044082, 0.069605, 0.074878, -0.022190, 0.118956, 0.027783, -0.122665, 0.207200, -0.143951, 0.029771, -0.013985, -0.018441, -0.072970, -0.047544, -0.007280, 0.119865, 0.198512, 0.186069, 0.090709, 0.051234, 0.211200, 0.150183, 0.145319, 0.252554, 0.180199, 0.172903, 0.001846, 0.329529, 0.226079, 0.012157, 0.150854, 0.014374, -0.073947, 0.035104, -0.034937, 0.206242, -0.219158, 0.212331, 0.055676, 0.047989, 0.274477, 0.093119, 0.085787, 0.166024, 0.049335, 0.052571, -0.020967, 0.060778, 0.158563, 0.289853, 0.231702, 0.357010, 0.234176, 0.234419, 0.391942, 0.167018, 0.112556, 0.002312, -0.015606, -0.025536, 0.048548, -0.057047, 0.160618, -0.083516, -0.064547, -0.169376, 0.034597, -0.047875, 0.038655, -0.001298, 0.033599, -0.096003, 0.023969, -0.002659, 0.118454, 0.075323, 0.004008, 0.108048, 0.223866, 0.219960, 0.235371, 0.416611, 0.198183, 0.114876, 0.274020, 0.087793, 0.038800, -0.027363, -0.005154, 0.023268, -0.035579, 0.126815, -0.051671, 0.234538, -0.170747, -0.011367, 0.091415, 0.199871, 0.298354, 0.301634, 0.267631, 0.174068, 0.080254, -0.124948, 0.093430, 0.225942, 0.185981, 0.242328, 0.141438, 0.179935, 0.229150, 0.092327, 0.300998, 0.157192, 0.120964, 0.032713, 0.052509, -0.110509, 0.070752, -0.111499, 0.062079, -0.095026, 0.005150, 0.073847, -0.021673, 0.085106, 0.307393, 0.254374, 0.085402, 0.213683, -0.008584, 0.059417, 0.071375, 0.127580, 0.074197, 0.115111, 0.105443, 0.309468, 0.290063, 0.300774, 0.235787, -0.001718, -0.077305, -0.061790, -0.161860, -0.061828, 0.014777, -0.049702, 0.026170, 0.123087, -0.005214, 0.027265, -0.132111, 0.056675, 0.160886, 0.149627, 0.202580, 0.048436, 0.124163, -0.099326, 0.029574, 0.178626, 0.112385, 0.213419, 0.235541, 0.271470, 0.231894, 0.141511, 0.356289, -0.021230, 0.133451, 0.019860, -0.237388, 0.361301, 0.133519, 0.155800, -0.051932, 0.027928, -0.039048, -0.025565, 0.057457, 0.125031, -0.070417, 0.006773, 0.013925, 0.107097, 0.242069, -0.109729, -0.005169, 0.108129, 0.218414, 0.253891, 0.291907, 0.384180, 0.379968, 0.288774, 0.235277, -0.030716, 0.011148, -0.294303, 0.103352, 0.086487, 0.210594, 0.087956, 0.083894, 0.077420, -0.118852, -0.148583, -0.120487, 0.108824, 0.150408, 0.211052, 0.213232, 0.156303, 0.032149, -0.138210, 0.051790, 0.054210, -0.013065, 0.236203, 0.189615, 0.340799, 0.090515, 0.170634, 0.102105, -0.013937, -0.082376, -0.090292, 0.055157, 0.135942, 0.061785, 0.176830, 0.280684, -0.063688, 0.045503, 0.081922, -0.059189, -0.010168, 0.108694, 0.152867, -0.089096, -0.058075, -0.004699, 0.040102, 0.045222, 0.151252, 0.179340, 0.139786, 0.282086, 0.152604, 0.254854, -0.027553, -0.033622, -0.241823, 0.042555, -0.146514, 0.086731, -0.036108, -0.016076, -0.161880, 0.013434, 0.046013, -0.004433, 0.042757, -0.057287, -0.109266, -0.079896, -0.214492, -0.084993, 0.046888, -0.158002, -0.130815, -0.108729, 0.061292, 0.159216, 0.384002, 0.014621, 0.234147, -0.085713, -0.009792, -0.138553, -0.023703, -0.073711, -0.086498, 0.026574, -0.407657, -0.056616, 0.063343, -0.049205, -0.173736, -0.024471, -0.082540, 0.027550, 0.163743, -0.036683, -0.130739, -0.137623, -0.113618, -0.069917, -0.044118, 0.002310, 0.135024, 0.204936, 0.035260, 0.004362, -0.178351, -0.004778, 0.120299, 0.144558, -0.060005, -0.055967, 0.057072, -0.167706, 0.004495, 0.049287, -0.003331, -0.117885, 0.037145, -0.068312, 0.108464, -0.307928, -0.205535, 0.051994, -0.029085, -0.155978, -0.222280, -0.091804, -0.061026, 0.137707, 0.140617, 0.127163, 0.126972, 0.040984, -0.137074, 0.020800, 0.023001, -0.037163, -0.042451, -0.273544, -0.099524, -0.194079, -0.253161, -0.106581, -0.039276, 0.121318, 0.240220, -0.017600, -0.204063, -0.176633, -0.202594, -0.292693, 0.023180, -0.076708, 0.124940, -0.094684, -0.027241, 0.128043, 0.263314, 0.212120, -0.044921, 0.122482, -0.020339, -0.019095, -0.146171, -0.195735, -0.093331, -0.327313, -0.306045, -0.156247, -0.150101, 0.053430, -0.174956, 0.179488, 0.174983, 0.047491, 0.083636, -0.189139, -0.173566, -0.324375, -0.158041, -0.060242, 0.080274, 0.119655, 0.199681, -0.009390, 0.087547, 0.194956, 0.286968, 0.018461, -0.060809, -0.078140, -0.094121, -0.049066, -0.075036, -0.154741, -0.138393, -0.340126, -0.084891, -0.221570, -0.180236, -0.092492, -0.038793, 0.085661, 0.244565, 0.165368, 0.083841, -0.000010, -0.223750, -0.212052, -0.134245, -0.060236, 0.120802, 0.082316, 0.200096, 0.317755, 0.168285, 0.052710, 0.021381, 0.161042, 0.018539, 0.010373, -0.073300, -0.224984, -0.017026, -0.006394, -0.189773, -0.366121, -0.054525, 0.071449, 0.011217, 0.070870, 0.185420, 0.006310, -0.117725, 0.103354, 0.089036, -0.103706, -0.127929, -0.001799, 0.182109, 0.207300, -0.071878, -0.117738, 0.111254, 0.030285, -0.065458, -0.206380, -0.061971, -0.110920, -0.224696, -0.014121, -0.319885, -0.407360, -0.197697, 0.069175, -0.052980, 0.146402, -0.079976, -0.024296, -0.095760, -0.092985, -0.176800, -0.080717, -0.050760, -0.026603, 0.069386, 0.004060, 0.105085, 0.176472, 0.094073, 0.059087, 0.141629, 0.004691, 0.047774, -0.027728, 0.000517, -0.158446, -0.232815, -0.248440, -0.191921, -0.099541, -0.133567, 0.013574, -0.048580, -0.102311, -0.035935, -0.073093, -0.102745, -0.012842, 0.023041, -0.086899, -0.066453, -0.038081, 0.216587, 0.060074, 0.172784, 0.138731, 0.079827, -0.021607, 0.068203, 0.040797, -0.082112, -0.056717, -0.021753, -0.082855, -0.068720, -0.229810, -0.086184, -0.138059, 0.042386, -0.135420, -0.077135, 0.100743, -0.073210, -0.033302, -0.077309, 0.209526, 0.242248, 0.053392, -0.039481, 0.070272, 0.064572, 0.135510, 0.099584, 0.115472, 0.148108, -0.024774, 0.095637, 0.057919, 0.084372, -0.014340, -0.077354, -0.076092, -0.116383, -0.098798, -0.031246, -0.116577, -0.072003, 0.171777, 0.169929, -0.209365, -0.074127, -0.017491, -0.040977, -0.014658, 0.144638, -0.012055, 0.094547, 0.083620, 0.091490, 0.110724, 0.078198, 0.043143, 0.085685, 0.200416, 0.091769, -0.082865, -0.000076, 0.050787, 0.109708, -0.033726, 0.080124, 0.196591, -0.075890, 0.039076, 0.242159, 0.234916, -0.021720, -0.096242, -0.143600, -0.029921, 0.041541, -0.090959, -0.245066, -0.165674, 0.071362, 0.118073, 0.167545, 0.118933, 0.019509, 0.196281, 0.075351, 0.062777, 0.007038, 0.027698, 0.066249, 0.134400, 0.071660, 0.204579, 0.305710, 0.138178, 0.203622, 0.049562, 0.256212, 0.158648, -0.083964, -0.167709, -0.023479, -0.035302, -0.032027, 0.110801, -0.166598, -0.199387, -0.114372, -0.048562, 0.315332, 0.309818, -0.004576, -0.083742, 0.120975, 0.046871, 0.133672, 0.014530, -0.116033, 0.121600, 0.134220, 0.129264, 0.066393, 0.289484, 0.192626, 0.272928, 0.142291, -0.027579, -0.108270, -0.021173, -0.026835, -0.009381, -0.014995, -0.003193, 0.005014, 0.045043, 0.053620, 0.070578, 0.023460, 0.062315, -0.045118, -0.149114, -0.027394, 0.223338, 0.116963, 0.185495, 0.093318, 0.175819, 0.134238, 0.029902, 0.076050, 0.042530, -0.002280, 0.016130, 0.009384, -0.020604, -0.016700, 0.001514, -0.019913, 0.003395, -0.054297, 0.089371, 0.022517, 0.055482, 0.032159, 0.052421, 0.101019, 0.084508, 0.143089, 0.130298, 0.047688, 0.170974, -0.083504, -0.103499, 0.095846, 0.062500, 0.033359, 0.075391, -0.270195, 0.093495, 0.037321, 0.080816, 0.059451, 0.013263, -0.010552, -0.017710, -0.018154, 0.011612, -0.092444, 0.109186, 0.108868, 0.196691, 0.084286, 0.259485, 0.265840, 0.111289, 0.042366, 0.060961, 0.073928, -0.059084, -0.110343, -0.053153, -0.037043, 0.167072, 0.198242, -0.115543, -0.108516, 0.005436, 0.041719, -0.024384, 0.257644, 0.169346, -0.018455, 0.000586, -0.007124, 0.021679, -0.133988, 0.212713, 0.170855, 0.073901, 0.056334, 0.110758, 0.050554, -0.049332, 0.205070, 0.053909, 0.022298, 0.001176, 0.042870, 0.025988, 0.134184, 0.100172, 0.147512, 0.103858, 0.124773, 0.288942, 0.027346, 0.116710, -0.235986, -0.027428, -0.035333, 0.011304, 0.013024, 0.026618, -0.038488, -0.055350, 0.084726, -0.112784, 0.085475, 0.269197, -0.149171, -0.168277, -0.126648, 0.036394, -0.156918, -0.066786, 0.026564, -0.189833, 0.013318, -0.112586, -0.303860, -0.157876, 0.126649, 0.352777, -0.097165, -0.197369, -0.070572, 0.308233, 0.044534, -0.048525, 0.005569, 0.084014, 0.076744, 0.013153, -0.087336, -0.022590, 0.026911, 0.130569, 0.019284, -0.027300, -0.047151, -0.113050, -0.104067, -0.023835, -0.199533, -0.410189, -0.424272, -0.196690, -0.252680, -0.449754, -0.229231, -0.191924, 0.000623, -0.202978, -0.425669, -0.212754, 0.016841, -0.261692, 0.007016, 0.069935, 0.145435, -0.054450, -0.038338, -0.003226, 0.192644, -0.163404, -0.060957, -0.070925, -0.032243, -0.136783, -0.192400, -0.160041, -0.224570, -0.097253, -0.257312, -0.357646, -0.359735, -0.431882, -0.305197, -0.126829, -0.417639, -0.408560, -0.458470, -0.365789, 0.159715, -0.126048, 0.007996, 0.056553, 0.051075, -0.063860, -0.069552, -0.024686, -0.020949, -0.002965, 0.036247, 0.083255, -0.032031, -0.018937, -0.119842, -0.141371, -0.308256, -0.137325, -0.089044, -0.299391, -0.227592, -0.276821, -0.160462, -0.234889, -0.026584, -0.222036, -0.592229, -0.185631, 0.022217, 0.022813, 0.025846, -0.171549, 0.082963, -0.159941, 0.131731, 0.024650, 0.057539, -0.047239, -0.025784, -0.092397, -0.040484, -0.043968, 0.089522, -0.053381, -0.261197, -0.296814, -0.208737, -0.109743, -0.186666, -0.144073, -0.028405, -0.212679, -0.128287, 0.061623, -0.257729, -0.120516, -0.047809, 0.006193, 0.019334, 0.123518, 0.024595, 0.029668, 0.030888, 0.097237, 0.066582, -0.024377, 0.028387, 0.047005, -0.091537, -0.055419, -0.063278, -0.089266, -0.005877, -0.088216, 0.135667, -0.036044, -0.074198, 0.101560, -0.128893, -0.013764, -0.242908, -0.301542, -0.161774, -0.234977, 0.001492, 0.000109, 0.010399, 0.055430, 0.066152, 0.116489, 0.077638, -0.083799, 0.114547, 0.071968, 0.075426, 0.118732, 0.129301, -0.022548, 0.128758, 0.095958, 0.000819, -0.163100, -0.092177, -0.186549, -0.067832, -0.140764, 0.044097, 0.055505, -0.175739, -0.090908, -0.020708, -0.117781, -0.007808, 0.100400, -0.017984, 0.026209, 0.091466, 0.084156, 0.031446, 0.001396, 0.048297, 0.053990, 0.049439, -0.001487, 0.057890, 0.168608, 0.028180, 0.152029, 0.002143, 0.046834, 0.026446, -0.026947, -0.020520, -0.315227, -0.182410, -0.332750, -0.082117, -0.100082, -0.166085, -0.124763, 0.159933, 0.226794, 0.007615, 0.036284, 0.026213, 0.027729, 0.042475, 0.046178, -0.001382, -0.016590, 0.122471, 0.008641, 0.093061, 0.167275, 0.158745, 0.169353, -0.016325, 0.110439, -0.064497, -0.179106, -0.064256, -0.283299, -0.212290, -0.371700, -0.187499, -0.107600, -0.149435, -0.051349, 0.103826, -0.070080, -0.146012, 0.124746, 0.091137, 0.020549, -0.074154, -0.155120, -0.052458, -0.040467, 0.038286, 0.099351, 0.010556, 0.187318, 0.081936, 0.192688, -0.000154, 0.092687, 0.021917, -0.014593, -0.261779, -0.354784, -0.255789, -0.331551, -0.465576, -0.461908, 0.053335, -0.026416, -0.060586, -0.006781, -0.011593, 0.147206, -0.056463, -0.124297, -0.046748, -0.121298, 0.000554, -0.147523, 0.049555, -0.101321, -0.017672, 0.081209, 0.007730, -0.047947, 0.000809, 0.004077, -0.041129, -0.210702, -0.193849, -0.078523, 0.002341, 0.022779, -0.177559, -0.127255, -0.048957, -0.196758, -0.204748, 0.103493, 0.020134, 0.082094, -0.184054, -0.201014, -0.184101, -0.013716, 0.031608, -0.010951, -0.088055, -0.093109, 0.132968, -0.098790, -0.051595, -0.040847, -0.031178, -0.010714, 0.053027, -0.068707, -0.068729, 0.022397, -0.136768, -0.145783, 0.003624, 0.002985, -0.079392, -0.178129, 0.007058, 0.383460, 0.011756, 0.018831, -0.190528, -0.076091, -0.094817, -0.015077, 0.030043, -0.017679, -0.058199, -0.000655, -0.085372, 0.051909, -0.059940, -0.076118, -0.264490, -0.240438, -0.048998, 0.228479, 0.130478, -0.039509, -0.123319, -0.067724, 0.088698, -0.174024, -0.299875, 0.036308, -0.190068, 0.080459, 0.015612, 0.039880, -0.129743, -0.005547, 0.095908, 0.029411, 0.004581, 0.003058, 0.045511, -0.256767, -0.167914, -0.102727, -0.194268, -0.020677, -0.220180, -0.112471, -0.049219, 0.008538, -0.164610, -0.080192, 0.120950, 0.014886, 0.078033, 0.094366, -0.147348, 0.163787, -0.169466, 0.077602, 0.089862, 0.086531, 0.064568, 0.015131, 0.055378, -0.028564, 0.001523, -0.165823, 0.009381, -0.160007, -0.053055, -0.055469, 0.058902, -0.136182, -0.226180, -0.030279, -0.018876, 0.237458, -0.018911, -0.012206, 0.193817, 0.070310, 0.059555, 0.105077, 0.026852, 0.233828, -0.104653, -0.120121, -0.092799, 0.105465, 0.111712, -0.036309, 0.005332, 0.040863, -0.004087, -0.127548, -0.041689, -0.048907, 0.012340, -0.202500, -0.029442, 0.058281, -0.040319, -0.044264, -0.129068, 0.049358, 0.092007, 0.114682, 0.243113, 0.120791, 0.034656, -0.116810, -0.001974, -0.048974, -0.118222, -0.081922, 0.008160, 0.126392, 0.057474, -0.093512, -0.015595, 0.050453, -0.033258, -0.115021, 0.019968, -0.048132, -0.073598, -0.056395, -0.082963, -0.000919, 0.057530, -0.087460, -0.007537, -0.040669, 0.156867, 0.035128, 0.005188, 0.219890, 0.006621, -0.091403, -0.057113, 0.137930, -0.111139, 0.096506, -0.041086, 0.068477, -0.089387, -0.020872, -0.053205, -0.021555, -0.122291, 0.022486, -0.156784, -0.161358, 0.093254, -0.035213, -0.023541, -0.081798, -0.079407, 0.084903, -0.031025, -0.245787, 0.059679, 0.140684, 0.097644, 0.062510, -0.015710, 0.069537, -0.106741, -0.242576, 0.094265, 0.053402, 0.010529, 0.024431, -0.051405, 0.206946, 0.042868, -0.162529, -0.015423, -0.024468, -0.133038, -0.142683, 0.076192, 0.221327, -0.145394, -0.032943, -0.033387, -0.062450, -0.072605, 0.007086, -0.153343, 0.036706, 0.153352, -0.016799, 0.054216, -0.046506, 0.279544, -0.203094, -0.106929, -0.003811, 0.015975, 0.019697, -0.155881, 0.268873, -0.035782, -0.130161, -0.137641, -0.072383, 0.092961, -0.054924, -0.059665, 0.034618, -0.022972, 0.047573, -0.026920, 0.152159, 0.078415, -0.072822, -0.085570, 0.061011, -0.014532, 0.100726, -0.050808, -0.094646, 0.102213, -0.101942, -0.127202, -0.077938, 0.018796, -0.003738, -0.047260, 0.081515, -0.113156, 0.157934, 0.155345, 0.105557, 0.147311, 0.086741, 0.108920, 0.116304, 0.016533, -0.032318, 0.092613, 0.045967, 0.022918, -0.043215, 0.037769, 0.083651, 0.133256, -0.052722, -0.146184, -0.026471, 0.061103, -0.242061, -0.298151, 0.014729, 0.001727, 0.016029, 0.106304, -0.147922, -0.253181, -0.044780, 0.208007, 0.139157, 0.146097, 0.133742, 0.072120, 0.038227, 0.182231, 0.155543, 0.192237, 0.084478, 0.181297, 0.065152, 0.089507, 0.482834, 0.314033, 0.030732, 0.090705, 0.052143, -0.094078, 0.071786, 0.014623, -0.015549, 0.020356, 0.019811, 0.038684, 0.120466, -0.251172, -0.121966, -0.000084, -0.034811, 0.051055, -0.032096, -0.041350, 0.182817, 0.215716, 0.199938, -0.181154, 0.182896, -0.059594, -0.019588, -0.062203, -0.007445, 0.264443, 0.026396, 0.184867, 0.179710, -0.157412, -0.057044, -0.090493, -0.019843, 0.013822, 0.001989, -0.013068, 0.054507, 0.094412, -0.106007, -0.105921, 0.092774, 0.052251, -0.130618, -0.059127, 0.094434, -0.241667, -0.486338, -0.179939, 0.185379, 0.187193, 0.067381, 0.161986, 0.227747, 0.221216, -0.006027, -0.079428, 0.024950, -0.008347, -0.028899, 0.020308, 0.001502, 0.005176, -0.209788, -0.223019, -0.208317, -0.204000, -0.199503, -0.226612, -0.103678, -0.060252, -0.032554, -0.074062, -0.072410, -0.104025, -0.166474, -0.001349, 0.152511, 0.182622, 0.000623, 0.080077, 0.141895, 0.058170, -0.005129, -0.014446, -0.048436, -0.080863, -0.156594, -0.217777, -0.225410, -0.209236, -0.221946, -0.242384, -0.226244, 0.055754, 0.120900, 0.039027, -0.028025, 0.009519, -0.017203, 0.059978, 0.089418, 0.140119, 0.112930, 0.125778, 0.105308, -0.090633, -0.108517, -0.053324, 0.106406, 0.110371, -0.007614, -0.199236, -0.148101, 0.111914, 0.198021, 0.071423, -0.095714, -0.234929, -0.242406, -0.209551, -0.183250, 0.071460, 0.215644, 0.276938, 0.111633, 0.129224, 0.297453, 0.216888, -0.015349, -0.008903, 0.005391, -0.051635, 0.184849, -0.010509, -0.046806, 0.049510, 0.309741, 0.248244, 0.263434, 0.214564, 0.046910, 0.057335, -0.124022, 0.085707, 0.128051, 0.114024, -0.216762, -0.207778, -0.178823, 0.031776, 0.031105, 0.048397, -0.005769, 0.025396, 0.267364, -0.041259, 0.037869, -0.075281, 0.080628, -0.104751, -0.095226, 0.033922, -0.024457, 0.121996, 0.033254, 0.071152, 0.218094, 0.067440, 0.129440, 0.048414, 0.191328, 0.161956, 0.100259, 0.186786, -0.236552, -0.211072, -0.113829, 0.152329, -0.013489, -0.139832, -0.157140, -0.136545, 0.015868, -0.208358, -0.069814, 0.000615, -0.081840, -0.055608, 0.055580, -0.037919, 0.112579, 0.034439, 0.174016, 0.148553, 0.045506, -0.094081, 0.061913, 0.235592, 0.044531, -0.065193, -0.021854, 0.050378, -0.243252, -0.192726, 0.115939, 0.263922, -0.019254, -0.270260, -0.093299, -0.047944, -0.018790, -0.025396, 0.001986, 0.131864, -0.019254, 0.016237, 0.152366, 0.143866, 0.118191, 0.211566, 0.296539, 0.128482, 0.116733, 0.106920, -0.025737, -0.096461, 0.019832, 0.038481, 0.087182, -0.008129, -0.231207, 0.024015, 0.130962, 0.247762, -0.058601, -0.338540, -0.029510, -0.035420, -0.089860, -0.125563, -0.156490, 0.016825, -0.162062, 0.091855, 0.077044, 0.034826, 0.155446, 0.183318, 0.088121, 0.003961, 0.047570, 0.127940, -0.018138, -0.154948, 0.108691, 0.092968, -0.084503, -0.009679, -0.307937, -0.018518, -0.186192, -0.069244, -0.233774, 0.056871, 0.026940, -0.023823, -0.037102, -0.244731, -0.203811, 0.024922, 0.001848, 0.228478, 0.148338, 0.131699, 0.106596, 0.094542, 0.087424, 0.095010, 0.171292, -0.051764, -0.015526, 0.195686, 0.047181, 0.049664, 0.026992, 0.254135, -0.260842, -0.113932, -0.126296, -0.241104, -0.146202, -0.071168, 0.059631, -0.080515, -0.114043, 0.098923, -0.045526, 0.216176, 0.130823, 0.222959, 0.168395, 0.214580, -0.037287, 0.113125, 0.096882, 0.056772, -0.084808, 0.091212, -0.129589, -0.064542, 0.085066, 0.182033, 0.058893, -0.001917, -0.087291, -0.057656, -0.106850, 0.021608, 0.325662, 0.041577, -0.015909, -0.042533, -0.099387, 0.115885, 0.038364, -0.280267, 0.086966, 0.037420, -0.037741, 0.107754, 0.018210, 0.150828, 0.018574, 0.059681, 0.006205, -0.012189, 0.017743, -0.166946, -0.088141, 0.059966, 0.029437, 0.070270, -0.210918, -0.029739, -0.162069, 0.097511, 0.089538, -0.195403, -0.284061, -0.272444, -0.107012, -0.028399, -0.069818, 0.065682, 0.113946, 0.131796, -0.064373, 0.119155, 0.071825, 0.100466, 0.174082, 0.047442, -0.124729, 0.115129, -0.144701, 0.212788, -0.230716, 0.083019, -0.005679, 0.119379, -0.228025, 0.064080, 0.216293, 0.207080, -0.096923, -0.027813, 0.017833, 0.046080, 0.006047, -0.093157, 0.149312, -0.038083, 0.056481, -0.133124, -0.185539, -0.088007, -0.031136, 0.150004, 0.237185, 0.115398, 0.160973, -0.031399, 0.008402, -0.006611, -0.059120, -0.152627, 0.171442, 0.163886, -0.251673, -0.204530, -0.059977, -0.226907, -0.075329, 0.277243, 0.089647, 0.127311, -0.132531, 0.143272, -0.056421, 0.068049, 0.046763, -0.113826, -0.166238, -0.172263, 0.078403, 0.082068, -0.018200, 0.153157, -0.170548, 0.237915, -0.046856, -0.098639, -0.148766, 0.052161, -0.013076, 0.005528, -0.213767, -0.171768, -0.105044, -0.323045, -0.039692, -0.019021, 0.175951, 0.190702, 0.186798, 0.045055, 0.168913, 0.058546, -0.031306, -0.029477, -0.071527, -0.028192, -0.046625, -0.085607, 0.194404, 0.059285, 0.025734, 0.049275, 0.008415, -0.178791, 0.068708, 0.073222, 0.231351, 0.117945, -0.124999, -0.120517, -0.006773, 0.156086, -0.080586, 0.280212, 0.279221, 0.222130, 0.135407, -0.055161, -0.072079, 0.101277, -0.000551, -0.090927, -0.273189, 0.178802, 0.197722, 0.105159, 0.231670, 0.094437, 0.115687, 0.122113, 0.079569, -0.035352, -0.011783, 0.108205, -0.065168, -0.154507, -0.236867, -0.206870, 0.042338, 0.319262, 0.362867, 0.579981, 0.471315, 0.174919, 0.299927, 0.051205, 0.118830, 0.126314, 0.083370, -0.122075, -0.178908, 0.083257, 0.213003, 0.197583, 0.157569, 0.185547, 0.047652, 0.157774, -0.033534, 0.023331, 0.024012, 0.044173, -0.139391, 0.023165, -0.217519, -0.062445, -0.120845, 0.110693, 0.034006, 0.330362, 0.370102, 0.416236, 0.379718, 0.066309, -0.006704, 0.111429, -0.107806, -0.090293, 0.147430, 0.114250, 0.173305, 0.186558, 0.132455, 0.103829, -0.181468, -0.116201, -0.148154, -0.102636, -0.074491, -0.058974, 0.076481, 0.146271, -0.078296, 0.004386, 0.097595, -0.023096, 0.056405, 0.177570, 0.228697, 0.301914, 0.321544, -0.054688, 0.309036, -0.158589, 0.055089, 0.019648, 0.145146, 0.270872, 0.212320, 0.154638, 0.283433, -0.164307, -0.170781, 0.066848, -0.030128, -0.020618, -0.104586, -0.056298, -0.046226, 0.239826, 0.027545, -0.036977, 0.124899, 0.215778, 0.088895, 0.154366, 0.183483, 0.284489, 0.011347, 0.171973, 0.144079, 0.140807, -0.059062, 0.034164, 0.241005, 0.174185, 0.037072, 0.106856, -0.112775, 0.004957, 0.085785, -0.156684, 0.020566, 0.171270, 0.010783, -0.123739, 0.107168, -0.028297, -0.214233, 0.057641, 0.350375, 0.064511, 0.318053, 0.344541, 0.229703, 0.112116, 0.226872, 0.138091, 0.037857, -0.169843, 0.000033, 0.116449, 0.060346, 0.030960, 0.022537, -0.025139, -0.022068, 0.023772, -0.117363, -0.126138, -0.165745, -0.066494, -0.053607, 0.138214, 0.340418, 0.105191, -0.206078, -0.082544, 0.182773, 0.185142, 0.178209, 0.384315, 0.332836, 0.041754, 0.296456, 0.019754, 0.061026, 0.081148, -0.088396, 0.052561, 0.063693, -0.238898, 0.088424, -0.103591, -0.121458, -0.106517, -0.036579, -0.154927, 0.071555, -0.183086, -0.066026, 0.181836, 0.011137, -0.008949, -0.250441, -0.119794, -0.067780, 0.184941, 0.330345, 0.413111, 0.305616, 0.316307, 0.193139, 0.136357, 0.023814, 0.008370, 0.009589, 0.018680, 0.019447, 0.182411, -0.059263, -0.078695, -0.094713, -0.132081, -0.240261, -0.134482, -0.050893, 0.095202, -0.023012, -0.089008, 0.155003, 0.128218, -0.223020, -0.217963, -0.151427, 0.097497, 0.260748, 0.499028, 0.483425, 0.390868, 0.477268, 0.273813, 0.156491, -0.070101, -0.067582, -0.134038, 0.003577, 0.083199, -0.287659, -0.281435, -0.078530, -0.025852, -0.100333, 0.070316, 0.088731, 0.125150, 0.037253, 0.065410, -0.022648, -0.198799, -0.214979, -0.221362, -0.200480, -0.192678, 0.164136, 0.459421, 0.298721, 0.368156, 0.400936, 0.163143, 0.187525, -0.182921, 0.010369, 0.068871, -0.111612, -0.139681, -0.032663, -0.108843, -0.122030, -0.048273, -0.073217, -0.157768, -0.231585, 0.033776, 0.239022, -0.232743, -0.281328, -0.270378, -0.238868, -0.228614, -0.184325, -0.132516, 0.195845, 0.149134, 0.329123, 0.239881, 0.327410, 0.021653, -0.150510, -0.094141, -0.106154, -0.164554, -0.142748, 0.121689, 0.090633, 0.004972, -0.213952, 0.005870, -0.101314, -0.346258, -0.178006, 0.112642, -0.083940, -0.263994, -0.249233, -0.172558, -0.243426, -0.229541, -0.110423, -0.184510, -0.083991, -0.382105, 0.128806, -0.172098, -0.076662, -0.121808, -0.263939, -0.038655, -0.096996, 0.049289, 0.174618, 0.117358, -0.192798, -0.204769, 0.021995, -0.018870, 0.172907, 0.121820, 0.228021, 0.114006, 0.047904, -0.119499, -0.224018, -0.203629, -0.230075, -0.228865, -0.230067, -0.217332, -0.233283, -0.243198, -0.295389, -0.358431, 0.101062, -0.061216, -0.252915, 0.047424, 0.070022, 0.479686, 0.026118, 0.013618, -0.012061, -0.173000, 0.265871, 0.026383, 0.270953, 0.262281, 0.109847, -0.021540, -0.100884, -0.075316, -0.209446, -0.231186, -0.243111, -0.205471, -0.236159, -0.238042, -0.209769, -0.231525, -0.246779, -0.167975, -0.314386, -0.070277, 0.020912, -0.334892, -0.076232, 0.036958, -0.347920, -0.007463, 0.001542, -0.169654, -0.270054, -0.021583, -0.228714, -0.171533, 0.191887, -0.222426, -0.212961, -0.221632, -0.235154, -0.221386 },
    { 0.045012, 0.033684, 0.058669, 0.050456, 0.067486, 0.040427, 0.054170, 0.061208, 0.063119, 0.061253, 0.038597, 0.061562, 0.055667, 0.054764, 0.043908, 0.050619, 0.052944, 0.057208, 0.072091, 0.066134, 0.070477, 0.059853, 0.069034, 0.036549, 0.058331, 0.037615, 0.058307, 0.038412, 0.068580, 0.046740, 0.052700, 0.049007, 0.064364, 0.047581, 0.103612, 0.068157, 0.104756, 0.089114, 0.045183, 0.041658, -0.012741, 0.088204, -0.005694, 0.110944, 0.044190, 0.052427, 0.081318, 0.256442, 0.123242, 0.079804, 0.045215, 0.034865, 0.063894, 0.045181, 0.066568, 0.068690, 0.047301, 0.054216, 0.037197, 0.073837, 0.087263, 0.059898, 0.074528, 0.045710, 0.016869, 0.077641, 0.140713, 0.119059, 0.163444, 0.004373, 0.001093, 0.007084, 0.099922, -0.019817, 0.310718, 0.008549, -0.000052, -0.302602, -0.191365, -0.216933, -0.101343, 0.012741, 0.067084, 0.067323, 0.034784, 0.121820, -0.035623, -0.132776, 0.000066, -0.080099, 0.058941, 0.090430, -0.087954, -0.150081, -0.177410, 0.218343, 0.038246, -0.069890, 0.034044, 0.136236, -0.137804, 0.023922, 0.022483, 0.212340, -0.127420, -0.103931, 0.156018, 0.094553, 0.185160, 0.083823, 0.074831, 0.190503, 0.065435, 0.084520, 0.100461, 0.155314, 0.144657, 0.173960, 0.079202, 0.106722, -0.107990, -0.093755, -0.164316, -0.002007, -0.214902, -0.299987, -0.095936, -0.070586, 0.263369, -0.047270, -0.085795, -0.009654, -0.035953, 0.092079, 0.161132, 0.036102, -0.229521, -0.204915, 0.375035, -0.344941, 0.032100, 0.137227, 0.112016, 0.005720, -0.010494, -0.034211, -0.040739, -0.013333, -0.123478, -0.288589, -0.261348, -0.226776, -0.069763, -0.213279, -0.412112, -0.317327, -0.134371, -0.077500, -0.018649, 0.194306, -0.270605, 0.124614, -0.178441, 0.028491, 0.247452, -0.027259, 0.030112, 0.182924, 0.064416, 0.188883, 0.162535, 0.033864, -0.054230, -0.022312, -0.099022, -0.129353, -0.046987, -0.137601, -0.288069, -0.212247, -0.356459, -0.185189, -0.317645, -0.056963, 0.104007, -0.091719, 0.036290, -0.160971, 0.020220, -0.010256, 0.015386, 0.042669, -0.067386, -0.073084, 0.228870, -0.392696, 0.049187, -0.006189, -0.135344, -0.104039, -0.068296, -0.206656, 0.030192, -0.069400, -0.158391, -0.248164, -0.202656, -0.200832, -0.097868, -0.142846, 0.043474, 0.005493, -0.184655, 0.132882, -0.083237, -0.123851, 0.015191, 0.019252, 0.048161, -0.080177, 0.065905, 0.156746, 0.038540, -0.022325, 0.024802, 0.191382, -0.079347, -0.162346, -0.157722, 0.056040, -0.279528, -0.229462, -0.265818, -0.063892, -0.050675, 0.042915, -0.019775, -0.236286, 0.053405, -0.152639, -0.190759, -0.195850, -0.104324, -0.214253, -0.099058, 0.072114, 0.096231, 0.104946, -0.080476, -0.196818, 0.141185, 0.158924, 0.239154, 0.060344, 0.012812, -0.001010, -0.113298, -0.070261, -0.278010, -0.090970, 0.004645, -0.061434, 0.140314, 0.191510, 0.043195, -0.169094, -0.120092, -0.263190, -0.068280, -0.005036, -0.273378, -0.156780, -0.049852, -0.020580, -0.116183, -0.123876, -0.580557, -0.006351, -0.283402, 0.029552, 0.097081, 0.046336, 0.151330, -0.108173, -0.176836, 0.026032, -0.063212, -0.087532, -0.131843, 0.006329, -0.047524, 0.072726, 0.080702, -0.260317, 0.002672, -0.028435, -0.002345, 0.078296, -0.054867, 0.048620, 0.025626, 0.106018, 0.035117, -0.051604, 0.059954, -0.270734, -0.037785, -0.002616, 0.115157, 0.122347, 0.058781, -0.134448, -0.373795, -0.179948, -0.216513, -0.405887, -0.183241, 0.002327, -0.017565, -0.138945, -0.042665, 0.088484, -0.040545, -0.039273, -0.070154, -0.060140, 0.104168, 0.060551, -0.105425, -0.003820, -0.081141, 0.018639, -0.048570, -0.093109, -0.205571, -0.262164, 0.107111, 0.228104, 0.090104, -0.126022, -0.247277, -0.378496, -0.540794, -0.270515, -0.186011, -0.108555, -0.004499, -0.072914, 0.062859, -0.155636, -0.299172, -0.045191, -0.158008, -0.244538, -0.247996, -0.055103, 0.003731, -0.041546, -0.011441, -0.095120, -0.069542, -0.002522, -0.194682, -0.027421, 0.165410, 0.128125, 0.166472, -0.103276, -0.210783, -0.302857, -0.472914, -0.244432, -0.192398, 0.174346, -0.029966, 0.156660, -0.012857, -0.025861, -0.234620, -0.082728, 0.047669, -0.207699, -0.072788, 0.021248, -0.068976, 0.018281, 0.075263, -0.101218, 0.025662, 0.104643, -0.163475, 0.045857, 0.113443, 0.135189, 0.313235, 0.014401, -0.081655, -0.017446, -0.211278, -0.244410, -0.271493, -0.134161, 0.075272, -0.095299, -0.258151, -0.183118, -0.141644, 0.038533, 0.019449, 0.057800, -0.165340, 0.013436, -0.061029, 0.084931, -0.064375, -0.200013, -0.153654, 0.029302, -0.132765, -0.103492, 0.060860, 0.058603, 0.208992, 0.071228, -0.136898, -0.165750, -0.103728, -0.489532, -0.274482, -0.020595, -0.163875, -0.144374, -0.241703, -0.109975, 0.009525, -0.026942, -0.216031, -0.083872, 0.097290, 0.114670, 0.400615, 0.117661, 0.111073, 0.123612, 0.083060, -0.129012, 0.109832, 0.080889, 0.055313, 0.225282, 0.132935, 0.027755, 0.002323, -0.027698, -0.261605, -0.328678, -0.287071, -0.229751, -0.119264, -0.071991, -0.309830, 0.042071, 0.155689, -0.049980, -0.074408, -0.113639, 0.021169, 0.112317, 0.124534, 0.234242, 0.258189, 0.024692, 0.185232, 0.178349, 0.068575, -0.034729, 0.060408, 0.045208, 0.234677, 0.063198, 0.341525, 0.277816, -0.020853, -0.102670, -0.157580, -0.015203, -0.166811, -0.020115, 0.002626, 0.109643, -0.042836, 0.026495, 0.111764, -0.190268, 0.108926, 0.364205, 0.385422, 0.052165, 0.189712, 0.236624, 0.303972, 0.065713, -0.131222, -0.295753, 0.036585, 0.041359, 0.026630, 0.000838, -0.058154, 0.070828, 0.029966, 0.055312, 0.054636, -0.174004, 0.017744, -0.049068, 0.016486, 0.273412, 0.144630, -0.024583, -0.045502, 0.090007, 0.147494, 0.089700, 0.131459, 0.233669, 0.173257, 0.241056, -0.084669, 0.085723, -0.332625, 0.008802, 0.040506, 0.002476, -0.000031, 0.131776, 0.233276, -0.098286, 0.008364, 0.263406, 0.114777, 0.012730, 0.163905, 0.111464, 0.186928, 0.123603, 0.199740, 0.000422, 0.114694, 0.280119, 0.147831, 0.098821, 0.228507, 0.009707, 0.142784, 0.029443, -0.031786, 0.038502, 0.082971, -0.164869, -0.042971, -0.055077, -0.064051, 0.074896, 0.016159, 0.101216, 0.143598, 0.226893, 0.354857, 0.030177, 0.123708, 0.041004, 0.100059, 0.011064, -0.025391, 0.065491, -0.010670, 0.095973, 0.172326, 0.203433, 0.046536, -0.006779, 0.002847, 0.092627, 0.359686, 0.078359, 0.173482, -0.038198, -0.054549, -0.141555, 0.049591, 0.117454, 0.077877, -0.046673, 0.051645, 0.030380, -0.082939, -0.000354, -0.048882, -0.006634, 0.121158, -0.260994, -0.018985, -0.005406, 0.254370, 0.283839, 0.227729, 0.120136, -0.190642, 0.101989, 0.149121, 0.266310, 0.192246, -0.069860, -0.178099, 0.177670, 0.208917, -0.118601, -0.034945, 0.221334, 0.118094, -0.055722, -0.071528, -0.030998, -0.064750, -0.097447, -0.070089, 0.023172, -0.056947, -0.096743, -0.081881, 0.038414, 0.085630, 0.213653, 0.076986, 0.092022, 0.323452, 0.245954, 0.000185, 0.124169, 0.113454, 0.052996, 0.154175, 0.162686, 0.203576, 0.044548, -0.034902, -0.098814, -0.082677, 0.082195, -0.003107, -0.026898, -0.082093, -0.134406, -0.035057, -0.143823, -0.128562, -0.120154, -0.057000, -0.062342, -0.011497, -0.014053, -0.051739, -0.049865, -0.003916, -0.165762, 0.197309, -0.045281, -0.159698, -0.134997, -0.129509, 0.127141, 0.065966, 0.162805, -0.024986, -0.038966, -0.129250, 0.056942, 0.038413, 0.021954, -0.059528, -0.161259, -0.152292, -0.230106, -0.086629, -0.033051, -0.009096, -0.019330, -0.074038, -0.078857, -0.097781, 0.025142, 0.115483, 0.097214, 0.207686, -0.111366, -0.079719, -0.224995, 0.177422, 0.197117, 0.066502, 0.059344, -0.139456, 0.023823, 0.217492, -0.028779, -0.075994, 0.025132, 0.020801, 0.014737, -0.098747, -0.010855, -0.030163, -0.098004, 0.092684, 0.113685, -0.087697, -0.224359, -0.195704, 0.018394, -0.102549, 0.151524, 0.033571, -0.245149, -0.330222, 0.213870, 0.088422, 0.088155, 0.064061, 0.078362, 0.057941, 0.086563, 0.126032, 0.091723, -0.109919, -0.322174, 0.107398, 0.147675, -0.134832, -0.006988, -0.033593, 0.064007, 0.047658, -0.191845, -0.196914, -0.246497, -0.266592, -0.277235, -0.330670, -0.128783, -0.061346, -0.202975, -0.043004, 0.112984, 0.100169, 0.037854, 0.053888, 0.049916, 0.043124, 0.054357, 0.011698, -0.003532, 0.115115, -0.101769, -0.313023, -0.189571, -0.053328, -0.152693, -0.068536, 0.125477, -0.203774, -0.335684, -0.116785, -0.086964, 0.008596, 0.011360, -0.005272, -0.026553, 0.013544, 0.093915, 0.038062, 0.069385, 0.060568, 0.048228, 0.012580, 0.018361, 0.015730, 0.016700, 0.034555, 0.194548, 0.099757, 0.113963, 0.096952, 0.189892, 0.201666, 0.115440, -0.077535, 0.131275, 0.116017, -0.139760, 0.046579, 0.104667, 0.064393, 0.038216, 0.029403, 0.072868, -0.006330, 0.003502, 0.001475, 0.019200, 0.003297, 0.009291, -0.010969, 0.100438, 0.010228, 0.100144, 0.058092, 0.132564, 0.088653, -0.059079, 0.011985, -0.000046, 0.240709, -0.134134, 0.290407, 0.217963, 0.276734, -0.039926, -0.102659, 0.218268, 0.062308, 0.399028, 0.207613, 0.274843, -0.064011, 0.001968, 0.005475, 0.001117, 0.011897, -0.000025, 0.016544, 0.160589, -0.006345, -0.039225, 0.070739, 0.002945, 0.050378, -0.015943, 0.052681, 0.019388, 0.343475, 0.131462, 0.126847, 0.179678, -0.078529, 0.039879, 0.110249, 0.031188, 0.239373, 0.350144, 0.147357, 0.056181, 0.254026, -0.222555, 0.008333, -0.013575, -0.005970, -0.016334, -0.009559, 0.174265, -0.056992, -0.086059, -0.064835, 0.025512, 0.154550, 0.061254, 0.060695, 0.122312, 0.219545, 0.199989, 0.081370, 0.114653, -0.028637, 0.024973, 0.069372, -0.009632, 0.172849, -0.088021, -0.174656, 0.123025, -0.159735, 0.277886, 0.088704, -0.075768, 0.000188, 0.007385, -0.017522, 0.157310, 0.164302, 0.093363, -0.116553, -0.060162, -0.030409, 0.224213, -0.071924, 0.140020, 0.315524, 0.221882, 0.126899, 0.151968, 0.231455, 0.098743, 0.040855, 0.140012, 0.186588, 0.093382, 0.042529, 0.510028, 0.315127, -0.027826, -0.157285, 0.163300, -0.021409, -0.015603, 0.008163, -0.034803, 0.020828, -0.002688, -0.021673, -0.185975, -0.112707, 0.199542, 0.142940, -0.089824, 0.235831, 0.168232, -0.032771, 0.201703, 0.272236, 0.281773, 0.072962, 0.109210, 0.432148, 0.287418, 0.387658, 0.100099, 0.009604, -0.418735, -0.149180, 0.063244, 0.208741, 0.004333, -0.031602, -0.031292, -0.045527, -0.036749, -0.066034, -0.054268, 0.016784, -0.124440, -0.012774, 0.049526, 0.045114, 0.111284, 0.145471, 0.074168, 0.160494, 0.081649, 0.180582, 0.334249, 0.342416, 0.138621, 0.093601, 0.271809, 0.025097, -0.279068, -0.175023, 0.182587, -0.026065, -0.015469, -0.027335, 0.054657, -0.038821, -0.299361, -0.148395, -0.139973, -0.005392, -0.008746, -0.134706, -0.056696, -0.186409, 0.024700, 0.127252, 0.177622, 0.044750, 0.135482, 0.477530, 0.210079, 0.375311, 0.200840, -0.042286, -0.020257, 0.206503, -0.140810, -0.272915, 0.047639, -0.007152, -0.043266, 0.240860, 0.034614, 0.034760, -0.273104, -0.176906, -0.143796, -0.091093, -0.111067, -0.074517, -0.037163, -0.059106, -0.092514, 0.059453, 0.092696, 0.051831, 0.341858, -0.010029, 0.220585, 0.084758, -0.033628, -0.006962, -0.045612, -0.115165, 0.070655, 0.112189, -0.018836, 0.036774, 0.004688, 0.170892, 0.070763, -0.002899, -0.310392, -0.067843, -0.034923, 0.010826, 0.027795, -0.105104, -0.071139, -0.045774, -0.003608, 0.071687, 0.103705, 0.067757, -0.019032, 0.081147, -0.014719, -0.217449, 0.014706, -0.155769, -0.086619, -0.061421, 0.008074, 0.072360, 0.095000, 0.124036, 0.009758, 0.277007, 0.068556, 0.024071, -0.223031, -0.005496, 0.186662, -0.055708, -0.091552, -0.113957, -0.005975, 0.030622, 0.034552, 0.213636, 0.059435, 0.076269, 0.198890, -0.065468, -0.230089, -0.161524, -0.045041, 0.031854, 0.049828, 0.114349, 0.147657, 0.128049, 0.198125, 0.204464, -0.019328, 0.192598, 0.224314, 0.118753, -0.000741, 0.078182, 0.123872, 0.071874, 0.097959, 0.079592, -0.068745, 0.067649, 0.123083, 0.082634, 0.168226, -0.000769, -0.035170, -0.197575, -0.108897, 0.130690, 0.195335, 0.188399, -0.236091, -0.120484, 0.348199, 0.079958, 0.046951, 0.073022, 0.039745, 0.012075, 0.083556, 0.281107, 0.032079, 0.023247, 0.006326, 0.065085, 0.256096, 0.073651, 0.133406, 0.150038, 0.170582, 0.203651, 0.114651, -0.041930, 0.055198, 0.033357, 0.067270, 0.002848, 0.131934, 0.084003, 0.005721, 0.154472, -0.142807, 0.130108, 0.100029, 0.109360, 0.216047, 0.031196, 0.226802, 0.343099, 0.016475, 0.122877, 0.121967, 0.083694, 0.291721, -0.024744, 0.270085, 0.142801, 0.249580, 0.037911, 0.272563, -0.119349, -0.193704, 0.125262, 0.057142, 0.209352, 0.337043, 0.239605, -0.086435, 0.074759, -0.062164, -0.050396, -0.032095, 0.051202, -0.008576, -0.039018, 0.131670, 0.199443, 0.093812, 0.172550, 0.201978, 0.225409, 0.301403, 0.251040, 0.335809, 0.274123, 0.250566, 0.197210, 0.149587, -0.187061, -0.126392, -0.026428, 0.188608, 0.101396, 0.231367, 0.116219, 0.122708, 0.056047, -0.000966, 0.292161, 0.151763, -0.027253, -0.003885, -0.003784, 0.125772, 0.034350, 0.168315, 0.186398, 0.061645, 0.095439, 0.303818, 0.136241, 0.171374, 0.329671, 0.191830, 0.234184, 0.271676, -0.175389, -0.293628, -0.030490, 0.232803, 0.039732, 0.080415, -0.076353, 0.202942, 0.013182, 0.073907, 0.166695, 0.097214, -0.096230, -0.010227, 0.086972, 0.090251, 0.046176, 0.154406, 0.311720, 0.109632, 0.218228, 0.224153, 0.076759, 0.256628, 0.130063, 0.109012, 0.092220, 0.289094, -0.244264, -0.335140, -0.118773, -0.056900, 0.092902, 0.008853, 0.125363, 0.203917, 0.223520, 0.244618, -0.095559, 0.227091, -0.022221, -0.005975, 0.080251, 0.054089, -0.023473, 0.087863, -0.016546, 0.187575, 0.313915, 0.103632, 0.186051, -0.025797, 0.135818, 0.121254, 0.176127, 0.317505, -0.005848, -0.258770, -0.156705, 0.136456, -0.270464, -0.088978, 0.078359, 0.274933, 0.062309, 0.232448, -0.057848, 0.188009, -0.007985, -0.018393, -0.030226, -0.046121, 0.009198, 0.044887, 0.054467, -0.141487, 0.112246, 0.010622, 0.064159, 0.087413, 0.000410, 0.220584, 0.105683, 0.015898, -0.037314, -0.137437, -0.278257, -0.131458, -0.257979, -0.282014, 0.294077, 0.154549, -0.105936, 0.002787, -0.146279, 0.193638, 0.284520, 0.193672, -0.048292, -0.210176, 0.103091, 0.073433, -0.103591, 0.002876, 0.002340, -0.057723, 0.002039, -0.072165, 0.101470, 0.052294, 0.089101, -0.052067, -0.103203, -0.273456, -0.353683, -0.227670, -0.151132, -0.368970, -0.141420, 0.069657, -0.133316, -0.008032, -0.020489, 0.164450, 0.219731, -0.014586, -0.111640, -0.178965, 0.139995, 0.189783, 0.029133, -0.141941, -0.065976, -0.142249, 0.012667, -0.007745, -0.170048, -0.058603, -0.062050, -0.096534, -0.003522, -0.059143, -0.103481, -0.521252, -0.062063, 0.102969, -0.010685, -0.066690, -0.030400, -0.129700, -0.097463, 0.242011, 0.117134, 0.113432, 0.059002, -0.074394, 0.003511, 0.032241, -0.075769, 0.034069, -0.096974, -0.030787, -0.082944, 0.200699, 0.029521, 0.123233, 0.032810, 0.072768, 0.036981, -0.063777, -0.156059, -0.225840, -0.183426, 0.041167, -0.006882, -0.140075, -0.294946, -0.019234, 0.094191, 0.191669, 0.262774, 0.007416, 0.185101, 0.040521, -0.022767, -0.149018, -0.090589, -0.105104, -0.030835, -0.020622, 0.044894, 0.139334, 0.032702, 0.037184, 0.127254, 0.172343, 0.303718, 0.200934, 0.121075, 0.070897, 0.085464, 0.173783, 0.054537, -0.345052, -0.169095, -0.190242, 0.200488, 0.154757, 0.118669, 0.150250, 0.018355, 0.126382, -0.169714, -0.022358, 0.062671, 0.110580, 0.254327, 0.237068, 0.089189, -0.103854, -0.013161, 0.020914, -0.005311, 0.040287, 0.283925, -0.038219, 0.134815, -0.076141, 0.070004, 0.101809, 0.258697, -0.223229, -0.168431, -0.055929, 0.137644, 0.160580, 0.159827, -0.015628, 0.011378, 0.034449, -0.146621, 0.201807, 0.041076, -0.133890, 0.023986, 0.006219, 0.111857, 0.029480, -0.010630, -0.167023, -0.036184, -0.245892, -0.311577, -0.140411, -0.079927, -0.025769, 0.177368, 0.233125, 0.394935, 0.346394, 0.110405, 0.162173, 0.233331, 0.271916, 0.009493, -0.012765, -0.002135, 0.078724, -0.020421, 0.128336, 0.082116, -0.000189, -0.248984, 0.055228, 0.193015, -0.034612, 0.168512, -0.054990, 0.055222, -0.204394, -0.085665, 0.033654, -0.176115, -0.306580, -0.286353, -0.296205, -0.129902, -0.038799, -0.140817, 0.068708, 0.157993, 0.016082, -0.013632, -0.020509, 0.000100, 0.013678, -0.034772, 0.007737, -0.116297, 0.024096, 0.103454, -0.247882, -0.109414, 0.075484, -0.196849, -0.005068, -0.026318, -0.218149, -0.116940, -0.108253, -0.055617, -0.015795, -0.053887, -0.073241, -0.010840, 0.057902, 0.089685, 0.070120, -0.011474, -0.007602, -0.017170, -0.004825, -0.010735, -0.017184, -0.016796, -0.007143, -0.016709, 0.129820, 0.122783, 0.129779, 0.000386, -0.043750, -0.024778, -0.008829, -0.043849, -0.050587, -0.074934, -0.018272, -0.047009, 0.008847, -0.055715, -0.047247, -0.015563, -0.020432, 0.045925, 0.019822, 0.001862, -0.002133, -0.018357, 0.014017, 0.003425, 0.009915, 0.008564, 0.006414, 0.032253, 0.022387, 0.091076, 0.055120, 0.101001, 0.051941, 0.045211, 0.159810, 0.135525, 0.051546, 0.061409, 0.112127, 0.034306, -0.040255, -0.060219, 0.029742, 0.013096, 0.005742, -0.008779, 0.026478, 0.039384, 0.026768, 0.003151, 0.004397, 0.016955, 0.005738, 0.013350, 0.012215, -0.000555, 0.071462, 0.047361, 0.109354, 0.051057, 0.070055, 0.046142, 0.009409, 0.007471, 0.011847, -0.050784, 0.110616, 0.153909, 0.094577, -0.026921, 0.037954, 0.210535, 0.282808, 0.301098, 0.169611, 0.067745, 0.005088, 0.077728, 0.030535, 0.024429, 0.031883, 0.147040, 0.120267, -0.021372, -0.070988, 0.027816, 0.060876, 0.029532, 0.058765, 0.083747, 0.063459, 0.190832, 0.223008, 0.008462, 0.082659, 0.041565, -0.067180, -0.170877, -0.008983, -0.007892, 0.005400, 0.094578, 0.125709, 0.269365, 0.169810, 0.169565, 0.163622, 0.001937, 0.005736, 0.209195, 0.125415, -0.028631, 0.010785, -0.058348, -0.126744, -0.247033, 0.051366, 0.164725, 0.008535, 0.129106, -0.000600, 0.106526, -0.090453, -0.076753, -0.094465, -0.051410, -0.001123, 0.011953, 0.027126, 0.013611, 0.119882, 0.079781, -0.078724, -0.053773, -0.094047, 0.025270, -0.014116, 0.164172, -0.017074, 0.014363, -0.000455, 0.085468, 0.164063, -0.054463, 0.147340, 0.063575, -0.049614, -0.097659, 0.019060, -0.012653, -0.093264, -0.200302, -0.036751, -0.106195, -0.061821, -0.038725, -0.114930, 0.012343, 0.042739, 0.076483, 0.198657, 0.127080, 0.214666, 0.023210, 0.035381, -0.153255, -0.123139, -0.028150, 0.038920, -0.055054, -0.059193, -0.221864, -0.054039, -0.031660, 0.266195, 0.162903, 0.010200, -0.007684, -0.061880, -0.125146, -0.049849, -0.189376, -0.080426, -0.193214, -0.015525, -0.061272, 0.119548, 0.204235, -0.053681, -0.086344, -0.033327, 0.012825, 0.005233, -0.003308, -0.012261, 0.102558, -0.041595, 0.043124, -0.159781, 0.212605, -0.026697, 0.103969, -0.114947, -0.049310, 0.180098, -0.181641, -0.226980, -0.162402, -0.194282, -0.134283, -0.123464, -0.081362, -0.136572, 0.036608, 0.009928, -0.150723, -0.137602, 0.031049, 0.050117, 0.189773, 0.140734, 0.038153, 0.116796, 0.083796, -0.114338, -0.010855, 0.014095, 0.072633, -0.095233, -0.267603, -0.202856, -0.086326, -0.260177, -0.121641, -0.114045, -0.120786, -0.288859, -0.055921, -0.104196, -0.199318, -0.051554, 0.016904, -0.027699, -0.074465, 0.006208, 0.057125, 0.016115, 0.213026, -0.061031, -0.028879, 0.119742, 0.111877, 0.015691, -0.038191, -0.129677, -0.051232, -0.003570, 0.014111, -0.206710, -0.234771, -0.169495, -0.061690, 0.091727, -0.075867, -0.197732, -0.033878, -0.131976, 0.008148, -0.132739, -0.084087, 0.023149, -0.054817, 0.011853, -0.373073, -0.211960, -0.044614, 0.133875, 0.071833, 0.114224, 0.119960, 0.059528, -0.015071, -0.207289, -0.285613, -0.298147, -0.245040, 0.125838, -0.285063, 0.106658, 0.018326, -0.266299, -0.072076, -0.087372, 0.018806, -0.061858, -0.078237, 0.006401, 0.050860, 0.220513, -0.059835, -0.076099, -0.252041, -0.271733, -0.004249, 0.339155, 0.211062, 0.222964, 0.248013, 0.275482, 0.100332, -0.025299, -0.274751, -0.363550, -0.306554, -0.243918, -0.172272, -0.356975, -0.034781, -0.082634, 0.073583, 0.183270, -0.119913, -0.055777, -0.053277, 0.200826, 0.328518, 0.217722, 0.072954, -0.006218, -0.155308, -0.187745, 0.009001, 0.191170, 0.091013, 0.059241, 0.205399, 0.156796, 0.095931, 0.067270, 0.103842, -0.062876, 0.078047, -0.240880, -0.138057, -0.229395, -0.222336, -0.056151, 0.023940, -0.047678, -0.103362, -0.121437, -0.075799, 0.169723, 0.182002, 0.162004, 0.140981, 0.268374, 0.010962, 0.034593, 0.028795, 0.098453, -0.049750, 0.071632, 0.067898, -0.055411, -0.111606, -0.425474, -0.051204, -0.270346, -0.123431, 0.043547, -0.392466, -0.157070, -0.030021, 0.149100, 0.070873, -0.114243, 0.088297, -0.064743, -0.064128, -0.034639, 0.292320, 0.116497, 0.318274, 0.094408, 0.031472, -0.063478, 0.046910, 0.059883, 0.030397, 0.087699, 0.088249, -0.019925, -0.184425, -0.426693, -0.362393, -0.215591, -0.194523, -0.266402, -0.072413, -0.029522, -0.004301, 0.249115, -0.005974, 0.129893, -0.046397, -0.079734, -0.008985, 0.124749, 0.047991, 0.300656, 0.169346, 0.180268, -0.090873, -0.196699, -0.008441, 0.023612, 0.011139, 0.210142, -0.115081, -0.433891, -0.381541, -0.248139, -0.405267, -0.071800, -0.374945, -0.040490, -0.129040, -0.133210, 0.242447, -0.030299, -0.077691, -0.065068, -0.093724, 0.062407, 0.206605, -0.036393, 0.217843, 0.103087, 0.166264, 0.194521, 0.037192, 0.010661, -0.007988, -0.000980, 0.173817, 0.006264, 0.011656, -0.341200, -0.597218, -0.164591, -0.195177, -0.282497, -0.082144, 0.043781, 0.107900, 0.210046, -0.075073, -0.176594, 0.065057, -0.106016, 0.011186, 0.135723, -0.098217, 0.235797, -0.033257, -0.122412, 0.046317, 0.158370, 0.042846, -0.102530, -0.036478, 0.005236, 0.173754, 0.050579, 0.095271, -0.208864, -0.383846, -0.321652, -0.237674, -0.119652, 0.039548, -0.028617, 0.024729, 0.087846, -0.070448, -0.039051, -0.040243, -0.048456, -0.001097, -0.006952, -0.044695, 0.004275, -0.144687, -0.009193, 0.031957, 0.052816, -0.173916, -0.231273, 0.014566, -0.034299, -0.019902, -0.074984, 0.107064, -0.224718, -0.432554, -0.281758, -0.059332, -0.106440, 0.077738, -0.038577, -0.051033, 0.038459, -0.039032, 0.066959, 0.086923, 0.118998, -0.088042, 0.188579, -0.048914, -0.006395, -0.085457, 0.014874, 0.071635, -0.006823, 0.043490, -0.148756, -0.029444, -0.043447, -0.145619, 0.004516, 0.002947, -0.021573, -0.105257, -0.103125, 0.198011, -0.106948, 0.100552, 0.149592, -0.025789, 0.211902, -0.172611, -0.006826, -0.038640, 0.114535, 0.374895, -0.189041, -0.017613, 0.235068, -0.081826, 0.005822, -0.015434, 0.227472, -0.057093, -0.172724, 0.025200, -0.030804, -0.165353, -0.008354, -0.014377, -0.198926, -0.039890, -0.073078, -0.021401, 0.239213, 0.012436, 0.108725, 0.015510, -0.123765, -0.063106, 0.032596, 0.073338, 0.098908, 0.049005, -0.027328, 0.094753, -0.069977, 0.095862, 0.069983, 0.184065, 0.028395, -0.048280, -0.099665, 0.016493, 0.047692, 0.191454, 0.229481, -0.037332, -0.180079, -0.340588, -0.182007, -0.071816, 0.021963, 0.148263, -0.186482, -0.166260, -0.140791, 0.029831, 0.040470, 0.045177, 0.053575, 0.072292, -0.110590, 0.010215, -0.186898, -0.123267, 0.060321, 0.145666, -0.077605, 0.017029, -0.102090, 0.086845, 0.065145, 0.338051, -0.025565, -0.039840, -0.163851, -0.236047, 0.005980, -0.135397, -0.162185, 0.050622, -0.192814, -0.082085, -0.220755, -0.249666, 0.054344, 0.058743, 0.020266, 0.232413, 0.228791, 0.343623, 0.083922, -0.095715, 0.137813, -0.084519, 0.155235, 0.077101, -0.224335, 0.036236, 0.034669, 0.021624, 0.008404, -0.033596, -0.209997, 0.029513, -0.294719, -0.311108, 0.050839, -0.057377, -0.311965, -0.402172, -0.004984, -0.086471, 0.047067, 0.165544, 0.223775, 0.238930, 0.053703, 0.356524, 0.107089, -0.016639, -0.129611, -0.051554, -0.072836, -0.144493, 0.136003, 0.036853, 0.017252, 0.020701, 0.038308, 0.035207, 0.200263, -0.090982, -0.293994, -0.384176, 0.040695, -0.007599, 0.189175, 0.153061, 0.018945, 0.077344, 0.086362, 0.038798, -0.052091, -0.025025, 0.277441, 0.224087, 0.301161, 0.180327, 0.176233, -0.018748, -0.013960, 0.119633, 0.047129, 0.026509, 0.033321, 0.034118, 0.031442, 0.006618, -0.028363, 0.020039, 0.043815, -0.103439, 0.179610, -0.115670, 0.184113, 0.229505, 0.328482, 0.197834, 0.186579, 0.222801, -0.237509, 0.374856, 0.165270, -0.024826, 0.246364, 0.053370, 0.180505, -0.130373, -0.002201, 0.060354, -0.059562, 0.027100, 0.027885, 0.039548, -0.001354, -0.006021, -0.052461, 0.033091, 0.112861, 0.031482, 0.405183, -0.102722, 0.193951, 0.194733, 0.157834, 0.292280, -0.024834, -0.013888, -0.091095, 0.096525, 0.020478, 0.138548, -0.028767, -0.046154, -0.031278, 0.017224, -0.020720, -0.021296, 0.034652, 0.039269, 0.037536, 0.014856, 0.021360, 0.022573, -0.002103, 0.020337, 0.004240, 0.234535, -0.100475, 0.265499, 0.044532, 0.043534, -0.035397, -0.123390, -0.088570, 0.063274, -0.022785, -0.202517, 0.019493, -0.025413, -0.030806, -0.058186, 0.021263, -0.049688, -0.027080, 0.027005, 0.008102, 0.041010, 0.015417, 0.032024, 0.009296, 0.014433, 0.000433, 0.024709, 0.030562, 0.037093, -0.045618, 0.020602, -0.105239, 0.071804, -0.067306, -0.023427, 0.040821, -0.185106, -0.041712, 0.011733, 0.012713, 0.019694, 0.026350, 0.037965, 0.009725, 0.033573, 0.035552, 0.006733, 0.026941 },
    { 0.064390, 0.042564, 0.063866, 0.055257, 0.052998, 0.053631, 0.062006, 0.028585, 0.056360, 0.038228, 0.054740, 0.033682, 0.043854, 0.030234, 0.044261, 0.065376, 0.052244, 0.050864, 0.042089, 0.063835, 0.052524, 0.036588, 0.042939, 0.040769, 0.043475, 0.056084, 0.029821, 0.049308, 0.049924, 0.034413, 0.050939, 0.053553, 0.056097, 0.043534, 0.063007, 0.063433, 0.102987, 0.041106, 0.043469, 0.016115, 0.022129, 0.039295, -0.041910, 0.027919, -0.033541, -0.070291, -0.058711, 0.055100, 0.047637, 0.023570, 0.082233, 0.042488, 0.029254, 0.035838, 0.024485, 0.030640, 0.047419, 0.032244, 0.050206, 0.067474, 0.034004, 0.060107, 0.078710, 0.097815, 0.040140, 0.160031, 0.039975, 0.066871, 0.031426, 0.058644, -0.086643, -0.055641, -0.107881, -0.035213, 0.033602, 0.050161, 0.089200, -0.078765, 0.054008, 0.080977, 0.105844, 0.056663, 0.040966, 0.055865, 0.062857, 0.060447, 0.081207, 0.085306, 0.093547, 0.037821, 0.062341, 0.037352, 0.078358, 0.094446, 0.063809, 0.107407, 0.140149, -0.017103, 0.100950, 0.222708, 0.152992, 0.209966, 0.050327, 0.142946, 0.198675, -0.108569, 0.102333, 0.081228, 0.042073, 0.084985, 0.052604, 0.055978, 0.040340, 0.029694, 0.052651, 0.034930, 0.071670, 0.060636, 0.212273, 0.172843, 0.125318, 0.149642, 0.118691, 0.121368, 0.178557, 0.155149, 0.183784, 0.146423, 0.049094, -0.072620, 0.197102, -0.175742, 0.039869, 0.059087, 0.134206, 0.130130, 0.033647, 0.021755, 0.034669, 0.043909, 0.053952, 0.010718, 0.010951, 0.095891, 0.047924, -0.014833, -0.111406, 0.239368, -0.006261, -0.044725, 0.125996, 0.010237, 0.112478, -0.022669, 0.132156, -0.081665, 0.223049, 0.111702, 0.140891, -0.245506, 0.027084, 0.062060, -0.323035, 0.054655, 0.101936, 0.029090, -0.004013, -0.015048, 0.059213, 0.081537, 0.023995, 0.147086, 0.034956, 0.080375, 0.044388, 0.067331, -0.026677, -0.110051, 0.016916, 0.150358, 0.350856, 0.198680, 0.042627, -0.019347, 0.196637, -0.160881, -0.047270, -0.060387, -0.251171, -0.424218, 0.081707, -0.287144, -0.131430, -0.239974, -0.076912, -0.050103, 0.056300, 0.042294, 0.021305, 0.085137, 0.087475, -0.049600, -0.022547, -0.221109, -0.433949, -0.247799, 0.138880, 0.207786, 0.213441, 0.121949, 0.205348, 0.134924, -0.058951, 0.026895, 0.021276, -0.020686, -0.191250, -0.019268, -0.184625, -0.031075, -0.167052, -0.240542, 0.102442, -0.179016, -0.238879, -0.177515, -0.244393, 0.000260, -0.150980, 0.006905, -0.108354, -0.032609, -0.224348, -0.108256, 0.159795, 0.106828, 0.100335, 0.027879, 0.160698, 0.098590, 0.130179, -0.029514, -0.055317, -0.002241, 0.018102, 0.104484, -0.139071, -0.357893, -0.102736, -0.045111, -0.240452, -0.072610, -0.290339, -0.244543, 0.007189, 0.005165, -0.013917, 0.157359, 0.121777, -0.172601, -0.383851, -0.043817, -0.042226, -0.121487, 0.102852, 0.025697, 0.128828, 0.259832, -0.111201, 0.032524, -0.023560, -0.028067, -0.032199, -0.025364, 0.002465, 0.097875, 0.057341, -0.176478, -0.112774, -0.040772, -0.052562, -0.270554, -0.027514, -0.220466, -0.116127, -0.017168, -0.215085, -0.157278, -0.066452, 0.056986, -0.102947, 0.013577, -0.192996, -0.058696, 0.084418, -0.002993, -0.191458, -0.082254, -0.246578, 0.077353, -0.170556, -0.073707, 0.046157, 0.012215, 0.048621, -0.158408, 0.023204, -0.167547, -0.050477, -0.288005, -0.222639, -0.065194, -0.222704, -0.026896, -0.514606, -0.204178, -0.058387, -0.113647, -0.178739, 0.038501, -0.069343, 0.134366, -0.198231, -0.164948, -0.122389, -0.158422, 0.173405, 0.040478, -0.139044, -0.172507, 0.077965, 0.121722, -0.163117, 0.014570, -0.048582, -0.031857, -0.022284, 0.029074, 0.132622, -0.016426, -0.220565, -0.142144, -0.091343, -0.211316, -0.019633, -0.024056, -0.010592, 0.064322, 0.207577, -0.059824, -0.109613, 0.285920, -0.091270, -0.217221, -0.071612, -0.109518, -0.031433, -0.123560, 0.040858, -0.204559, 0.204122, 0.024488, 0.007102, 0.142148, 0.050531, -0.074106, -0.169990, 0.103499, -0.208408, -0.229908, -0.197092, -0.018560, -0.138326, -0.042552, -0.115318, -0.049495, 0.043863, 0.265418, -0.121054, 0.010148, -0.344524, -0.403143, 0.019410, -0.033525, -0.134851, 0.002696, 0.212804, 0.160429, -0.011546, -0.052709, -0.125715, -0.060693, 0.156404, -0.105125, -0.226831, -0.084620, -0.142620, -0.224667, -0.130740, -0.104147, -0.100005, -0.110428, 0.024292, 0.218820, 0.123365, 0.082306, 0.212937, 0.037264, -0.345102, -0.351154, -0.170246, -0.140128, -0.156588, 0.093588, 0.007517, -0.188505, -0.108697, -0.445041, -0.110717, -0.000727, 0.049952, -0.027636, 0.050825, -0.091533, -0.024997, -0.021821, -0.164597, 0.094693, -0.057894, -0.014030, -0.073910, 0.109810, 0.216679, 0.314335, 0.157474, 0.215374, -0.056846, -0.163274, 0.046185, -0.072254, 0.073462, -0.191909, -0.078610, -0.147625, -0.285772, -0.184918, -0.202632, -0.156701, 0.042383, 0.079381, 0.071187, 0.017464, 0.024491, 0.117808, -0.022894, -0.167362, -0.059375, 0.052666, 0.070812, 0.165348, 0.261521, 0.316414, 0.116099, -0.007224, 0.023571, 0.313224, -0.070481, -0.153359, -0.240657, 0.116534, -0.036758, -0.184518, -0.181093, -0.302674, -0.168783, 0.029690, 0.022679, 0.036085, 0.001510, -0.163222, -0.182274, -0.186885, 0.038683, 0.013815, 0.062234, 0.088331, 0.142520, 0.243677, 0.002775, 0.261818, 0.151952, -0.033772, -0.000863, -0.157992, -0.290688, 0.023104, -0.178555, -0.153960, 0.023382, -0.293756, -0.188657, -0.097611, -0.075948, 0.041173, 0.025736, 0.010660, -0.015403, -0.003792, -0.126248, -0.052282, -0.212653, 0.071814, 0.186423, 0.026711, 0.127246, 0.188878, 0.216802, 0.160872, 0.063164, 0.026303, 0.012394, -0.188212, 0.151228, 0.058142, -0.224557, -0.221445, -0.072534, -0.164726, -0.000555, 0.108495, 0.129164, -0.065416, -0.011201, 0.061459, -0.110035, -0.116535, -0.066758, -0.011058, 0.033732, 0.076577, 0.177661, 0.185156, 0.217599, 0.183877, 0.126652, 0.222613, 0.203152, 0.042135, -0.126783, -0.254688, -0.071745, -0.040611, -0.073948, 0.160693, 0.130249, 0.002501, 0.105030, 0.116086, 0.200246, 0.116279, 0.004515, -0.077774, -0.066633, -0.008691, -0.145249, -0.089426, 0.023964, 0.145131, -0.074245, 0.091064, 0.334431, 0.195867, 0.117055, 0.125943, 0.083776, -0.225658, -0.185069, -0.325412, -0.002623, 0.022788, 0.057699, 0.077741, -0.053854, 0.085719, 0.005427, 0.107389, 0.222267, 0.258142, 0.024462, -0.072598, 0.011599, -0.005604, -0.013417, -0.059612, -0.133909, -0.133528, -0.171896, -0.091839, 0.029074, 0.040359, 0.204435, 0.096639, 0.100885, -0.190911, -0.167165, 0.026912, 0.041331, -0.064538, -0.068128, -0.027988, 0.002454, 0.118483, 0.249232, 0.041305, 0.153738, 0.241728, 0.152284, -0.033575, -0.055794, 0.052745, 0.109126, -0.034239, -0.210373, -0.120503, -0.160662, -0.194577, -0.007066, 0.033861, 0.147673, -0.186897, -0.282077, -0.322096, -0.220725, -0.123400, -0.203644, -0.150309, -0.183841, 0.043058, 0.021965, 0.038242, 0.082177, -0.128874, 0.102194, 0.061873, 0.148831, 0.013204, 0.166064, 0.099268, 0.076939, -0.036947, -0.165620, -0.310241, -0.269821, -0.019522, 0.033495, -0.023858, -0.017494, -0.045233, -0.210200, -0.306951, -0.217707, -0.071937, -0.083779, -0.060250, -0.017847, 0.081419, -0.097100, -0.016704, 0.092243, 0.232258, -0.101787, 0.136124, 0.026940, -0.053791, 0.263181, 0.214072, 0.129306, -0.046660, 0.004473, -0.021431, 0.108591, 0.040504, 0.061596, 0.053214, -0.173425, -0.229928, -0.040186, -0.216925, -0.265285, -0.215124, -0.154415, 0.030722, 0.044308, -0.064680, -0.127497, 0.044864, 0.447701, 0.037583, 0.015611, 0.055191, 0.044818, 0.051283, -0.161050, -0.061161, 0.205472, 0.211024, -0.045770, 0.032391, -0.104002, -0.020896, -0.002338, -0.162117, -0.054540, -0.164533, -0.147605, -0.067817, -0.054266, -0.108545, -0.075337, 0.063762, 0.087369, 0.208848, -0.027858, 0.187079, 0.118566, 0.083826, 0.079837, 0.034260, 0.027799, 0.078479, -0.095141, -0.056395, 0.000648, 0.036646, -0.069271, 0.022328, 0.083736, -0.091113, -0.048230, -0.161640, 0.004663, -0.119316, -0.122319, -0.115707, -0.002346, 0.176495, 0.009514, -0.030563, 0.258020, 0.200845, 0.066747, 0.126474, -0.001538, 0.089097, 0.057915, 0.045771, 0.027921, 0.032303, 0.193430, 0.129409, 0.078323, -0.119240, -0.060840, 0.100942, 0.120494, 0.068466, 0.044336, -0.084358, -0.240901, -0.184807, 0.089997, -0.012077, 0.158363, -0.157609, 0.125789, 0.259675, 0.241001, 0.231630, 0.130202, 0.216979, 0.135572, 0.044015, 0.059402, 0.057089, 0.016776, 0.003031, 0.011858, -0.009023, 0.005708, 0.049217, 0.096599, 0.060066, 0.020556, 0.023940, -0.113166, -0.004117, -0.000737, -0.059876, -0.175888, -0.151592, 0.016603, 0.001286, 0.002990, 0.017752, 0.042545, -0.000680, -0.015461, -0.008678, -0.008277, 0.004554, -0.012802, -0.000027, -0.012926, 0.011477, 0.005025, 0.004801, 0.024027, 0.078968, 0.116889, -0.002879, 0.078026, 0.143014, -0.016218, 0.014484, 0.144472, -0.054099, 0.094110, 0.064939, 0.024551, -0.029199, -0.060731, 0.013565, 0.043741, 0.038183, -0.017487, 0.010128, 0.008342, 0.011198, -0.008681, 0.019151, -0.004852, -0.045413, 0.010809, 0.020141, 0.043360, 0.255403, 0.191262, -0.084847, 0.127059, 0.223468, 0.185748, 0.139354, -0.026018, 0.112700, -0.005278, 0.123106, 0.174115, 0.019937, -0.085936, 0.053764, 0.015825, 0.000372, -0.025420, 0.020908, 0.015867, -0.002349, 0.005267, 0.016194, 0.003114, -0.013604, 0.017693, 0.034776, 0.002569, 0.114420, 0.087799, -0.031381, 0.209073, 0.178814, 0.048958, -0.277351, -0.120705, 0.068538, 0.176590, 0.229572, 0.182397, 0.067823, 0.017802, 0.108731, 0.021547, -0.066150, -0.020492, -0.015326, 0.009603, -0.003492, 0.012954, 0.012616, 0.013359, -0.041568, 0.002392, 0.005117, 0.018780, 0.047501, 0.015909, -0.050621, -0.005307, -0.225466, -0.150304, -0.094395, 0.001878, 0.121303, -0.076287, 0.238993, 0.413278, 0.145192, -0.058136, 0.037182, -0.207704, -0.050829, -0.193495, -0.286847, 0.007720, -0.104696, 0.016483, 0.018408, -0.003525, -0.008245, 0.050991, 0.036872, -0.129903, -0.061104, 0.082198, -0.038155, -0.155939, -0.136198, -0.111987, -0.281635, -0.048889, 0.125399, -0.039045, 0.103625, -0.053687, 0.043169, -0.108228, -0.093422, -0.088502, -0.183499, -0.073341, -0.015992, -0.088656, -0.192857, -0.113590, 0.016772, -0.174623, -0.178543, -0.124545, -0.032651, -0.216299, 0.114285, -0.008495, 0.038348, -0.182877, -0.428841, -0.078261, -0.056075, -0.276868, 0.042065, 0.104576, -0.051482, 0.039704, -0.059442, -0.105615, -0.148031, -0.175886, 0.146460, -0.117281, 0.078571, -0.200213, 0.000884, 0.002130, -0.020147, -0.268031, -0.157156, -0.029596, -0.093727, -0.203890, 0.029186, 0.037802, -0.087002, -0.217030, -0.090955, -0.122954, -0.198634, 0.035770, -0.087743, -0.079676, -0.144151, 0.059045, -0.307736, 0.052636, 0.019985, 0.127820, 0.267720, -0.244020, 0.020004, 0.126180, -0.048947, 0.032723, 0.003906, -0.294483, -0.097199, 0.035303, -0.062371, -0.055309, 0.161463, 0.036252, 0.087698, -0.103162, 0.038587, 0.059771, -0.040916, -0.015620, -0.264218, -0.197837, 0.109782, 0.084322, -0.110860, -0.286266, -0.165850, -0.046251, 0.208213, -0.199994, -0.132927, 0.004406, 0.030778, 0.015990, 0.015652, -0.156683, -0.153241, 0.160470, -0.033608, -0.100368, 0.061951, 0.021636, 0.187199, 0.102232, 0.060717, 0.270384, 0.153599, -0.012367, 0.083127, 0.130846, 0.090882, 0.026254, 0.031136, 0.042366, 0.026698, -0.020859, -0.001282, -0.057649, 0.029800, 0.032711, 0.325968, 0.059616, 0.012868, 0.001655, -0.193725, 0.074949, 0.106800, 0.083911, 0.120453, 0.248512, 0.235992, 0.202071, 0.198482, 0.099959, 0.246314, 0.249120, 0.186680, 0.087254, -0.013530, -0.018089, -0.028245, 0.052356, 0.025616, -0.003129, 0.010233, 0.081992, 0.246887, -0.119567, 0.358312, -0.022865, 0.016484, 0.075390, -0.154535, 0.101004, 0.097964, 0.171145, 0.200701, 0.091351, 0.170313, 0.054356, 0.131330, 0.167804, 0.029140, 0.036995, 0.123602, -0.124100, -0.114973, -0.178822, -0.156801, -0.284917, 0.043221, -0.247908, 0.055248, 0.054525, 0.130013, -0.037551, 0.176823, 0.292672, -0.023955, 0.021605, -0.172843, -0.085249, 0.036233, 0.161836, 0.282710, 0.261346, 0.075371, 0.068513, 0.225384, -0.139773, -0.069694, 0.069984, 0.082927, -0.165016, -0.235900, -0.399524, -0.463917, -0.197353, -0.067036, 0.058357, 0.051179, -0.057246, -0.109839, -0.009918, 0.017486, -0.061697, -0.052249, 0.147070, -0.092808, -0.057228, -0.008705, 0.044395, -0.009553, 0.119761, -0.062915, -0.073749, -0.138848, -0.050750, 0.220361, -0.008359, -0.052806, -0.050643, -0.274981, -0.373984, -0.308845, -0.329173, -0.093678, 0.106836, 0.168329, -0.247626, -0.056086, 0.088871, 0.231667, -0.037655, -0.012669, -0.008012, -0.011013, -0.039452, 0.066707, 0.060826, -0.106794, -0.187190, 0.067243, -0.160656, -0.002601, -0.083268, -0.038988, -0.016350, -0.058641, -0.135521, -0.268220, -0.337213, -0.176740, -0.210289, -0.064832, 0.409120, 0.340835, -0.084129, -0.226083, 0.093146, 0.336223, 0.003854, 0.016244, -0.003975, 0.008603, -0.011369, -0.058883, -0.084724, -0.197040, -0.176220, -0.148847, -0.157161, -0.040844, -0.145722, -0.031776, -0.121291, -0.154640, -0.176897, -0.239495, -0.253075, -0.139280, -0.374356, 0.049011, 0.179483, 0.257099, 0.068472, 0.177199, -0.015743, 0.268015, 0.277114, -0.008121, 0.005656, -0.023903, -0.080831, -0.040207, 0.070487, -0.151184, -0.145802, -0.063148, 0.061367, -0.096030, 0.084496, -0.197837, -0.045428, -0.043273, -0.301618, -0.156682, -0.157677, -0.154500, -0.336481, -0.031154, 0.024143, 0.097356, 0.042083, 0.001904, 0.138235, 0.111354, -0.119013, -0.003400, 0.010235, 0.042824, -0.016581, -0.067033, -0.048321, -0.214104, -0.274425, -0.074234, -0.292703, 0.033242, 0.044535, -0.179324, -0.029031, 0.025488, -0.081433, 0.039752, -0.149109, -0.133549, -0.065591, 0.084390, 0.063630, 0.132678, 0.054816, 0.327431, 0.267511, 0.101686, -0.004518, -0.112439, -0.114756, 0.048458, 0.018042, -0.126555, -0.243185, -0.292028, -0.222675, -0.247092, -0.223979, 0.104587, 0.087969, 0.051576, -0.098561, 0.075663, 0.035418, -0.014392, 0.044562, -0.005121, -0.042117, 0.001212, 0.115873, 0.186801, 0.040810, 0.210916, 0.269795, 0.166555, 0.184576, 0.162164, -0.154639, -0.097488, -0.027811, -0.101857, -0.276060, -0.418136, -0.352074, -0.303248, -0.265630, -0.045234, 0.048251, 0.090054, 0.027520, 0.117754, 0.114616, 0.023083, 0.031889, 0.128400, 0.030563, -0.147592, 0.094375, -0.090380, 0.036224, 0.238873, 0.303367, 0.051799, 0.239960, 0.020615, -0.050158, 0.047765, 0.042137, -0.124763, -0.272682, -0.385444, -0.269657, -0.092113, -0.071815, 0.055127, -0.036427, 0.032890, 0.064035, 0.011960, -0.011158, 0.072736, 0.052792, 0.039288, 0.063942, 0.025860, 0.050379, -0.223601, 0.128530, -0.083881, 0.220321, 0.096842, 0.193392, 0.207423, 0.143534, 0.003302, 0.121006, 0.067359, -0.187311, -0.136166, -0.164649, -0.019047, -0.105996, -0.049403, -0.035141, 0.030056, 0.176856, 0.078360, 0.071803, 0.180554, 0.125928, 0.092536, 0.145993, 0.171424, -0.106645, -0.142448, 0.146901, -0.006867, -0.222609, 0.124547, 0.114300, -0.015746, 0.126766, -0.024692, 0.172947, 0.118386, -0.076830, -0.053009, 0.161322, -0.031798, 0.119560, 0.001592, 0.018057, 0.065048, 0.060540, 0.264306, 0.165101, 0.123984, 0.250360, 0.208727, 0.242961, 0.027203, -0.203116, -0.214088, 0.116384, 0.166574, 0.092658, 0.195436, -0.003416, 0.008347, -0.002640, -0.007677, 0.157232, 0.140807, 0.090250, -0.104182, 0.130794, 0.126791, 0.151952, 0.140309, 0.115692, 0.066715, 0.117334, 0.075791, 0.161169, 0.090087, 0.090713, 0.125482, 0.058385, 0.040148, 0.031650, -0.157590, 0.130097, 0.070721, 0.060380, 0.103017, 0.024563, 0.008485, -0.012560, 0.037253, -0.166105, -0.019934, 0.145853, -0.095036, 0.096001, 0.173823, 0.064723, 0.089053, 0.069930, 0.089189, 0.009946, 0.136125, 0.107431, 0.079876, 0.113189, 0.104630, 0.180146, 0.208759, -0.162161, -0.034028, 0.123881, 0.029230, 0.048443, -0.004235, -0.009239, 0.014129, 0.002363, 0.125596, -0.178409, 0.030539, 0.030917, -0.091853, 0.145408, 0.058104, 0.039833, -0.047824, -0.129588, -0.019891, 0.038367, 0.119787, -0.001981, 0.178219, 0.109953, 0.244989, 0.227909, 0.332719, 0.078686, -0.036714, 0.251439, -0.006992, 0.004393, -0.014032, -0.012860, 0.002575, -0.003387, 0.027106, 0.142292, 0.068596, -0.054037, 0.021428, 0.053065, -0.138540, 0.090579, 0.221994, -0.084911, 0.050394, -0.114290, -0.078150, 0.216170, 0.052241, -0.016752, 0.056151, 0.128139, 0.137610, 0.052813, 0.141665, 0.215121, -0.054388, 0.007792, -0.019207, -0.019215, 0.010366, -0.003445, -0.000198, 0.034343, 0.075696, -0.022762, -0.097841, -0.147852, -0.189526, -0.121548, -0.194741, 0.035782, -0.211486, -0.426232, -0.097181, 0.178282, 0.231101, 0.116181, 0.353037, 0.371619, 0.208516, 0.189485, 0.021416, 0.017996, -0.006695, 0.001339, -0.016992, 0.016170, -0.001220, 0.055371, 0.053287, 0.040798, 0.036710, 0.041140, 0.029480, 0.032566, 0.054441, 0.046011, 0.057774, 0.038276, 0.012572, -0.043645, -0.073959, -0.109317, -0.130123, -0.144113, -0.153104, -0.110993, 0.030053, 0.062544, 0.063389, 0.088532, 0.100425, 0.072491, 0.034717, 0.050801, 0.034317, 0.054395, 0.045094, 0.050769, 0.073530, 0.053511, 0.064123, 0.044112, 0.069466, 0.019795, 0.101817, 0.141274, 0.144749, 0.132679, 0.175987, 0.104282, 0.083220, 0.049040, 0.077917, 0.031162, -0.047061, -0.054611, -0.046324, 0.088737, 0.077589, 0.101523, 0.078263, 0.055128, 0.041232, 0.030174, 0.049580, 0.006702, 0.048273, 0.032254, 0.062646, 0.195276, 0.270879, 0.163088, -0.024004, 0.107616, 0.285146, 0.262353, 0.153018, 0.072778, -0.000286, -0.048508, 0.016328, -0.015919, -0.059502, -0.100773, -0.083323, 0.044862, 0.070360, 0.023760, 0.084976, 0.054804, 0.067048, 0.065757, 0.065490, 0.013138, 0.033294, 0.024198, 0.039194, 0.097201, 0.116831, -0.070075, -0.188351, 0.110828, 0.181758, 0.032021, -0.211236, -0.045730, -0.064427, -0.056074, -0.021035, 0.086201, 0.118525, -0.050595, 0.024329, 0.006510, -0.030201, -0.070158, 0.010406, 0.011686, 0.049567, 0.066372, 0.035942, 0.003658, 0.037776, 0.043060, -0.002506, -0.011407, 0.116184, -0.091426, -0.134649, -0.050234, -0.130147, -0.141130, -0.121958, 0.084511, 0.029653, -0.091390, -0.127808, -0.102716, -0.029552, 0.016066, 0.021903, -0.074901, -0.126724, -0.190907, -0.239230, -0.147983, -0.001306, 0.065852, 0.004957, 0.018910, 0.029960, 0.093322, -0.042645, -0.063862, -0.144038, -0.207998, -0.106548, -0.130514, 0.101280, -0.079127, 0.157078, -0.081309, 0.193731, 0.171242, 0.112278, 0.183006, 0.077749, 0.148252, 0.067457, 0.064124, -0.045318, 0.004923, 0.010561, -0.073690, -0.145000, 0.046946, -0.166258, -0.178685, -0.016886, -0.102356, -0.194671, -0.118799, -0.198868, -0.050938, -0.185920, -0.153028, 0.106841, -0.083713, 0.029287, 0.037926, 0.022134, 0.057967, 0.105577, 0.165197, 0.036176, -0.039457, 0.046307, 0.083809, -0.034317, 0.008127, 0.117082, 0.132295, -0.261164, 0.048307, -0.192426, -0.172493, -0.036451, 0.041138, 0.026516, 0.039782, -0.035593, -0.306114, -0.339063, -0.139873, -0.213186, -0.085901, -0.073912, -0.082006, 0.038260, 0.122278, -0.014694, 0.059041, 0.104329, -0.031986, 0.137764, -0.116648, -0.278069, 0.004884, 0.100130, -0.054650, -0.154294, -0.004027, -0.235797, 0.002417, -0.001100, 0.045771, -0.176706, 0.188173, 0.006320, -0.230321, -0.225058, -0.406159, 0.052698, -0.084263, -0.223735, 0.002755, 0.168862, 0.076621, -0.089881, 0.090384, 0.111038, 0.029701, -0.140295, -0.094979, -0.029636, -0.254172, -0.052903, -0.209679, -0.130826, 0.025932, -0.045017, -0.247747, -0.138949, -0.027034, -0.174079, -0.254276, -0.329845, -0.330023, -0.166695, -0.247416, -0.236541, -0.205871, 0.056998, -0.137010, 0.412392, 0.123633, 0.152070, 0.084644, 0.009388, 0.085745, 0.022923, 0.126514, -0.089319, -0.042801, -0.088816, -0.014510, -0.016975, 0.051395, 0.058454, -0.247741, -0.000204, -0.077029, -0.116330, -0.293443, -0.237030, -0.265361, -0.419134, 0.063658, 0.025956, 0.185995, 0.185896, 0.064496, 0.124207, 0.087577, 0.154691, 0.183760, 0.007922, 0.252850, 0.112766, -0.180327, -0.098536, -0.134742, 0.033477, -0.150972, 0.015727, 0.058219, 0.020444, -0.060204, -0.103728, -0.055170, -0.062765, -0.220327, -0.030521, 0.157158, -0.025819, -0.057411, -0.146287, 0.042328, 0.008379, -0.188315, -0.013199, 0.073965, 0.186873, -0.042332, 0.088467, -0.095500, -0.030180, 0.088554, -0.091730, 0.003842, -0.065608, -0.075895, -0.017645, 0.077321, 0.081884, -0.228354, -0.027472, 0.005463, 0.071176, -0.170700, -0.061024, 0.330381, 0.093599, -0.065214, -0.048124, -0.140082, 0.157429, -0.141905, -0.028828, 0.191038, 0.005155, 0.002901, 0.019839, -0.215486, -0.107978, -0.026633, -0.294194, -0.165098, -0.224746, -0.256685, 0.003182, 0.067506, 0.047733, 0.078373, -0.088938, 0.222891, -0.315838, -0.355680, 0.186044, 0.122254, 0.160823, 0.001786, -0.200713, -0.025638, -0.045358, -0.067337, -0.065564, 0.075350, -0.044465, -0.404684, -0.256026, -0.252512, -0.074312, -0.087418, -0.199379, -0.197859, -0.143127, 0.014255, -0.022351, 0.048977, 0.076547, 0.126856, -0.083225, -0.271153, -0.114876, 0.012780, 0.124424, 0.243587, 0.166770, 0.147169, -0.007423, -0.018502, -0.240659, -0.118823, -0.081881, -0.080628, -0.227411, -0.212147, -0.176677, -0.068414, -0.208974, 0.100827, -0.182510, -0.132986, -0.186983, 0.001386, -0.135691, 0.061046, 0.029398, 0.050580, 0.059964, 0.099856, -0.043712, -0.234158, 0.053949, -0.022629, 0.090965, 0.063311, 0.077580, 0.087016, -0.028511, -0.308915, -0.180649, -0.149895, -0.388776, -0.176469, -0.347222, -0.330315, -0.128141, -0.078733, -0.014118, -0.184470, 0.065178, -0.098709, 0.049489, 0.008339, 0.031891, 0.004383, -0.111271, -0.065255, -0.100918, -0.183532, -0.190169, 0.235057, 0.177892, 0.074175, 0.299284, -0.063380, -0.011175, -0.437539, -0.233020, -0.278344, -0.299763, -0.242709, -0.387830, -0.314768, -0.096793, -0.109404, -0.140452, -0.166024, -0.151784, 0.074323, 0.004880, 0.028583, 0.035830, 0.168170, -0.001114, -0.033922, 0.073500, 0.057842, -0.045154, 0.219375, -0.027406, 0.271485, -0.220883, 0.038710, 0.008557, -0.133501, -0.095689, -0.245451, -0.276140, -0.528447, -0.252706, -0.191532, -0.073561, -0.189675, 0.086567, -0.030474, 0.182937, 0.321474, -0.092204, 0.030532, -0.059038, -0.225313, -0.048270, 0.014801, 0.155710, 